{"learner":{"attributes":{"scikit_learn":"{\"_estimator_type\": \"regressor\"}"},"feature_names":["base_price","cost","mrp","shelf_life_days","min_order_qty","lead_time_days","is_seasonal","population","avg_income_index","storage_capacity_units","cold_storage_available","price","promo_flag","promo_depth","comp_promo_flag","opening_stock","incoming_stock","closing_stock","returns","waste_spoiled","stockout_flag","mos","festival_uplift","weather_factor","macro_factor","safety_stock","reorder_point","day_of_week","day_of_month","week_of_year","is_weekend","quarter","year","loc_lag_1","loc_lag_7","loc_lag_14","loc_lag_30","loc_rolling_7_mean","loc_rolling_30_mean","loc_rolling_7_std","chan_lag_1","chan_rolling_7_mean","elasticity_proxy","days_since_promo","promo_run","demand_yoy_pct_change"],"feature_types":["float","float","float","int","int","int","int","int","float","int","int","float","int","float","int","int","int","int","int","int","int","float","float","float","float","int","int","int","int","int","int","int","int","int","int","int","int","float","float","float","int","float","float","int","int","float"],"gradient_booster":{"model":{"cats":{"enc":[],"feature_segments":[],"sorted_idx":[]},"gbtree_model_param":{"num_parallel_tree":"1","num_trees":"100"},"iteration_indptr":[0,1,2,3,4,5,6,7,8,9,10,11,12,13,14,15,16,17,18,19,20,21,22,23,24,25,26,27,28,29,30,31,32,33,34,35,36,37,38,39,40,41,42,43,44,45,46,47,48,49,50,51,52,53,54,55,56,57,58,59,60,61,62,63,64,65,66,67,68,69,70,71,72,73,74,75,76,77,78,79,80,81,82,83,84,85,86,87,88,89,90,91,92,93,94,95,96,97,98,99,100],"tree_info":[0,0,0,0,0,0,0,0,0,0,0,0,0,0,0,0,0,0,0,0,0,0,0,0,0,0,0,0,0,0,0,0,0,0,0,0,0,0,0,0,0,0,0,0,0,0,0,0,0,0,0,0,0,0,0,0,0,0,0,0,0,0,0,0,0,0,0,0,0,0,0,0,0,0,0,0,0,0,0,0,0,0,0,0,0,0,0,0,0,0,0,0,0,0,0,0,0,0,0,0],"trees":[{"base_weights":[-6.119291E-2,-1.853042E1,4.0216193E2,1.1280287E2,-3.629624E1,6.4029236E2,6.784676E1,5.943971E2,3.3287764E0,-1.0300646E2,-9.128685E0,6.267467E2,7.881862E2,4.1554077E1,6.404179E2,-2.90438E1,5.998999E2,-9.9476415E-1,6.045338E2,-1.03524155E2,2.5607738E1,-3.6753593E1,3.966705E1,6.292256E2,3.9191868E1,7.537496E2,9.275973E2,1.6095173E1,1.0387572E2,5.862917E2,7.233406E2,-4.910732E1,1.2487537E1,5.828278E2,7.3834344E2,-3.0905348E1,5.2180153E1,5.374837E2,6.8974524E2,-4.0973858E1,-1.03888695E2,-2.6905417E0,7.2102036E1,-6.490879E1,-1.95423E1,5.204168E1,-1.0454716E2,6.0148236E2,6.758972E2,1.53021755E1,1.0263644E2,8.5502716E2,7.3520044E2,8.857696E2,1.09312E3,-4.1124485E1,3.0284128E1,8.340036E1,1.4075447E2,5.355709E2,6.2275745E2,7.980285E2,6.959366E2,-8.314446E0,-3.8630624E0,-2.1158782E-1,3.0953448E0,6.0312256E1,4.9407978E1,6.981924E1,8.607846E1,-6.136335E0,-1.2339307E0,3.5165508E0,9.331382E0,1.3206471E1,5.4461544E1,2.0327353E1,6.950943E1,3.062854E1,-8.927428E0,-1.0393667E1,-1.6687119E0,-3.403526E0,1.035883E0,5.742025E0,1.13338995E1,-8.191796E0,-5.4220395E0,-1.2634791E0,-1.0463358E1,3.4873066E0,9.325362E0,-6.122277E0,-1.0475701E1,5.573592E1,6.276875E1,6.323289E1,7.0462875E1,-4.3770022E0,2.8402689E0,8.189787E0,1.3155176E1,9.051586E1,8.024883E1,7.1835976E1,9.10949E1,8.680431E1,1.0234482E2,9.957891E1,1.19291374E2,-5.773677E0,-2.3854756E0,1.9061978E0,4.947532E0,7.4740195E0,1.0032486E1,1.3199237E1,1.8919966E1,5.2523296E1,6.458639E1,5.90188E1,6.5219345E1,7.5244606E1,8.59803E1,6.5427605E1,7.838601E1],"categories":[],"categories_nodes":[],"categories_segments":[],"categories_sizes":[],"default_left":[0,0,0,0,0,0,0,0,0,0,0,0,0,0,0,0,0,0,0,0,0,0,0,0,0,0,0,0,0,0,0,0,0,0,0,0,0,0,0,0,0,0,0,0,0,0,0,0,0,0,0,0,0,0,0,0,0,0,0,0,0,0,0,0,0,0,0,0,0,0,0,0,0,0,0,0,0,0,0,0,0,0,0,0,0,0,0,0,0,0,0,0,0,0,0,0,0,0,0,0,0,0,0,0,0,0,0,0,0,0,0,0,0,0,0,0,0,0,0,0,0,0,0,0,0,0,0],"id":0,"left_children":[1,3,5,7,9,11,13,15,17,19,21,23,25,27,29,31,33,35,37,39,41,43,45,47,49,51,53,55,57,59,61,63,65,67,69,71,73,75,77,79,81,83,85,87,89,91,93,95,97,99,101,103,105,107,109,111,113,115,117,119,121,123,125,-1,-1,-1,-1,-1,-1,-1,-1,-1,-1,-1,-1,-1,-1,-1,-1,-1,-1,-1,-1,-1,-1,-1,-1,-1,-1,-1,-1,-1,-1,-1,-1,-1,-1,-1,-1,-1,-1,-1,-1,-1,-1,-1,-1,-1,-1,-1,-1,-1,-1,-1,-1,-1,-1,-1,-1,-1,-1,-1,-1,-1,-1,-1,-1],"loss_changes":[4.1247834E10,1.2386486E10,1.940616E10,3.334962E10,8.4748227E9,2.8470477E8,1.5265531E9,4.0194458E8,1.3396924E9,9.010688E7,4.479198E9,1.8993152E8,5.662771E7,1.538279E8,1.9557632E7,8.5554294E5,2.7405107E8,8.13887E8,2.0654592E7,3.0728192E7,7.1392285E6,1.0281587E9,2.1436259E9,1.6775168E8,8.305329E5,1.7370624E7,1.5378048E7,5.5887496E7,2.1221056E7,4.658432E6,3.034624E6,2.4355288E5,9.040341E4,1.8592154E8,6.205491E7,1.8519654E8,1.2892624E8,5.89568E6,4.066496E6,1.3103947E8,5.603328E6,1.380416E6,1.236444E6,1.4633549E8,7.739597E8,7.8273E8,8.56704E5,9.384141E7,6.0155904E7,3.107936E5,7.9175625E4,3.163776E6,2.3333888E7,3.724288E6,3.396608E6,3.9227E6,1.187824E7,2.642912E6,4.235536E6,9.56E5,1.11456E6,6.59584E5,4.216E6,0E0,0E0,0E0,0E0,0E0,0E0,0E0,0E0,0E0,0E0,0E0,0E0,0E0,0E0,0E0,0E0,0E0,0E0,0E0,0E0,0E0,0E0,0E0,0E0,0E0,0E0,0E0,0E0,0E0,0E0,0E0,0E0,0E0,0E0,0E0,0E0,0E0,0E0,0E0,0E0,0E0,0E0,0E0,0E0,0E0,0E0,0E0,0E0,0E0,0E0,0E0,0E0,0E0,0E0,0E0,0E0,0E0,0E0,0E0,0E0,0E0,0E0,0E0,0E0],"parents":[2147483647,0,0,1,1,2,2,3,3,4,4,5,5,6,6,7,7,8,8,9,9,10,10,11,11,12,12,13,13,14,14,15,15,16,16,17,17,18,18,19,19,20,20,21,21,22,22,23,23,24,24,25,25,26,26,27,27,28,28,29,29,30,30,31,31,32,32,33,33,34,34,35,35,36,36,37,37,38,38,39,39,40,40,41,41,42,42,43,43,44,44,45,45,46,46,47,47,48,48,49,49,50,50,51,51,52,52,53,53,54,54,55,55,56,56,57,57,58,58,59,59,60,60,61,61,62,62],"right_children":[2,4,6,8,10,12,14,16,18,20,22,24,26,28,30,32,34,36,38,40,42,44,46,48,50,52,54,56,58,60,62,64,66,68,70,72,74,76,78,80,82,84,86,88,90,92,94,96,98,100,102,104,106,108,110,112,114,116,118,120,122,124,126,-1,-1,-1,-1,-1,-1,-1,-1,-1,-1,-1,-1,-1,-1,-1,-1,-1,-1,-1,-1,-1,-1,-1,-1,-1,-1,-1,-1,-1,-1,-1,-1,-1,-1,-1,-1,-1,-1,-1,-1,-1,-1,-1,-1,-1,-1,-1,-1,-1,-1,-1,-1,-1,-1,-1,-1,-1,-1,-1,-1,-1,-1,-1,-1],"split_conditions":[3.1666667E0,1E0,2E0,2E0,2E0,1.602E3,4.26E2,0E0,4.26E2,8E-3,1.25E2,1E0,1.932E3,1.75E2,2.0114285E2,1E2,1.485E3,1.25E2,1.94E2,8.9E1,1.5E2,7.5E1,4.26E2,1.25E2,1.75E2,1.6877E2,2.195E3,1E2,2.25E2,1E2,7.59E2,5E1,1.25E2,8E-3,1.802E3,7.5E1,1.75E2,2E0,8.9E1,2E0,4.25E2,1E2,2E2,5E1,4.26E2,1.75E2,8.9E1,7.671429E1,7.785714E1,1E2,2.25E2,1E0,1E0,1E0,2.52E0,7.5E1,1.5E2,2E2,2.75E2,1.399E3,1.77E2,2.1314285E2,2.3057143E2,-8.314446E0,-3.8630624E0,-2.1158782E-1,3.0953448E0,6.0312256E1,4.9407978E1,6.981924E1,8.607846E1,-6.136335E0,-1.2339307E0,3.5165508E0,9.331382E0,1.3206471E1,5.4461544E1,2.0327353E1,6.950943E1,3.062854E1,-8.927428E0,-1.0393667E1,-1.6687119E0,-3.403526E0,1.035883E0,5.742025E0,1.13338995E1,-8.191796E0,-5.4220395E0,-1.2634791E0,-1.0463358E1,3.4873066E0,9.325362E0,-6.122277E0,-1.0475701E1,5.573592E1,6.276875E1,6.323289E1,7.0462875E1,-4.3770022E0,2.8402689E0,8.189787E0,1.3155176E1,9.051586E1,8.024883E1,7.1835976E1,9.10949E1,8.680431E1,1.0234482E2,9.957891E1,1.19291374E2,-5.773677E0,-2.3854756E0,1.9061978E0,4.947532E0,7.4740195E0,1.0032486E1,1.3199237E1,1.8919966E1,5.2523296E1,6.458639E1,5.90188E1,6.5219345E1,7.5244606E1,8.59803E1,6.5427605E1,7.838601E1],"split_indices":[45,27,40,40,40,26,40,45,40,45,16,27,26,16,37,16,26,16,37,25,16,16,40,16,16,2,26,16,16,16,40,16,16,45,26,16,16,35,25,28,33,16,16,16,40,16,25,37,37,16,16,6,6,6,22,16,16,16,16,26,37,37,37,0,0,0,0,0,0,0,0,0,0,0,0,0,0,0,0,0,0,0,0,0,0,0,0,0,0,0,0,0,0,0,0,0,0,0,0,0,0,0,0,0,0,0,0,0,0,0,0,0,0,0,0,0,0,0,0,0,0,0,0,0,0,0,0],"split_type":[0,0,0,0,0,0,0,0,0,0,0,0,0,0,0,0,0,0,0,0,0,0,0,0,0,0,0,0,0,0,0,0,0,0,0,0,0,0,0,0,0,0,0,0,0,0,0,0,0,0,0,0,0,0,0,0,0,0,0,0,0,0,0,0,0,0,0,0,0,0,0,0,0,0,0,0,0,0,0,0,0,0,0,0,0,0,0,0,0,0,0,0,0,0,0,0,0,0,0,0,0,0,0,0,0,0,0,0,0,0,0,0,0,0,0,0,0,0,0,0,0,0,0,0,0,0,0],"sum_hessian":[5.552458E6,5.308695E6,2.43763E5,6.32554E5,4.676141E6,1.4236E5,1.01403E5,1.17157E5,5.15397E5,1.353241E6,3.3229E6,1.3042E5,1.194E4,9.6952E4,4.451E3,1.025E3,1.16132E5,5.11718E5,3.679E3,1.347816E6,5.425E3,2.121722E6,1.201178E6,1.29872E5,5.48E2,9.58E3,2.36E3,6.8834E4,2.8118E4,2.698E3,1.753E3,6.91E2,3.34E2,1.03388E5,1.2744E4,3.27501E5,1.84217E5,2.063E3,1.616E3,7.81E3,1.340006E6,3.373E3,2.052E3,8.04945E5,1.316777E6,1.106254E6,9.4924E4,8.1462E4,4.841E4,3.99E2,1.49E2,1.476E3,8.104E3,1.889E3,4.71E2,1.3677E4,5.5157E4,1.8082E4,1.0036E4,1.135E3,1.563E3,4.63E2,1.29E3,1.61E2,5.3E2,1.87E2,1.47E2,8.4141E4,1.9247E4,9.602E3,3.142E3,1.24028E5,2.03473E5,1.30315E5,5.3902E4,3.6E1,2.027E3,1.8E1,1.598E3,9.53E2,6.857E3,1.339269E6,7.37E2,9.91E2,2.382E3,1.515E3,5.37E2,3.10623E5,4.94322E5,1.217911E6,9.8866E4,7.80927E5,3.25327E5,4.59E2,9.4465E4,3.0362E4,5.11E4,1.9247E4,2.9163E4,7.2E1,3.27E2,8.9E1,6E1,7.47E2,7.29E2,7.4E3,7.04E2,1.68E3,2.09E2,2.44E2,2.27E2,6.97E3,6.707E3,3.4806E4,2.0351E4,1.1965E4,6.117E3,8.502E3,1.534E3,1.043E3,9.2E1,7.52E2,8.11E2,2.74E2,1.89E2,8.81E2,4.09E2],"tree_param":{"num_deleted":"0","num_feature":"46","num_nodes":"127","size_leaf_vector":"1"}},{"base_weights":[-2.8528776E-3,-1.6664083E1,3.6210822E2,1.01583824E2,-3.2657803E1,5.7636536E2,6.125261E1,5.351228E2,3.0076828E0,-9.2712265E1,-8.225915E0,5.6469543E2,7.18136E2,3.7516518E1,5.755421E2,-2.6341253E1,5.3987836E2,-9.090285E-1,5.4397723E2,-9.317136E1,2.3163383E1,-3.307829E1,3.568652E1,5.0962888E2,5.860726E2,6.902373E2,8.5993866E2,1.4495335E1,9.3703995E1,5.3920264E2,6.2331366E2,-5.8411766E1,-4.405168E0,5.214766E2,6.442951E2,-2.7878021E1,4.6998905E1,5.0055347E2,6.0555743E2,3.184305E2,-9.325962E1,-2.651355E0,6.481971E1,-5.842179E1,-1.7596973E1,4.681362E1,-9.407394E1,4.9406024E2,5.758471E2,5.8826544E2,3.4447178E1,8.422528E2,6.642762E2,1.0419026E3,8.264045E2,-3.6958145E1,2.7292923E1,7.524512E1,1.2665404E2,4.9462708E2,5.671666E2,6.904223E2,5.935398E2,-7.429035E0,-4.8275275E0,-1.4722292E0,2.8567402E0,5.39972E1,4.4198322E1,7.352021E1,5.9555237E1,-5.526534E0,-1.1127565E0,3.1653159E0,8.398773E0,1.5847893E1,5.0818783E1,5.692639E1,6.603785E1,3.283647E-1,6.44651E1,-9.344868E0,-4.0785594E0,-3.0824385E0,9.145121E-1,5.167181E0,1.0111154E1,-7.3751054E0,-4.880555E0,-1.138043E0,-9.417242E0,3.1367698E0,8.392757E0,-9.409297E0,1.7727428E1,4.5573555E1,5.211819E1,5.7896523E1,3.1567657E0,5.505087E1,6.167345E1,1.6063371E-3,6.980377E0,1.10765175E2,8.214506E1,6.2949726E1,7.10469E1,9.6684E1,1.1837872E2,7.8928825E1,9.321504E1,-5.1754994E0,-2.1591005E0,1.7170696E0,4.4530616E0,6.736139E0,9.028678E0,1.1098951E1,1.48782625E1,4.4846447E1,5.25977E1,5.2700375E1,5.9596985E1,6.752973E1,8.09774E1,5.510992E1,6.3800556E1],"categories":[],"categories_nodes":[],"categories_segments":[],"categories_sizes":[],"default_left":[0,0,0,0,0,0,0,0,0,0,0,0,0,0,0,0,0,0,0,0,0,0,0,0,0,0,0,0,0,0,0,0,0,0,0,0,0,0,0,0,0,0,0,0,0,0,0,0,0,0,0,0,0,0,0,0,0,0,0,0,0,0,0,0,0,0,0,0,0,0,0,0,0,0,0,0,0,0,0,0,0,0,0,0,0,0,0,0,0,0,0,0,0,0,0,0,0,0,0,0,0,0,0,0,0,0,0,0,0,0,0,0,0,0,0,0,0,0,0,0,0,0,0,0,0,0,0],"id":1,"left_children":[1,3,5,7,9,11,13,15,17,19,21,23,25,27,29,31,33,35,37,39,41,43,45,47,49,51,53,55,57,59,61,63,65,67,69,71,73,75,77,79,81,83,85,87,89,91,93,95,97,99,101,103,105,107,109,111,113,115,117,119,121,123,125,-1,-1,-1,-1,-1,-1,-1,-1,-1,-1,-1,-1,-1,-1,-1,-1,-1,-1,-1,-1,-1,-1,-1,-1,-1,-1,-1,-1,-1,-1,-1,-1,-1,-1,-1,-1,-1,-1,-1,-1,-1,-1,-1,-1,-1,-1,-1,-1,-1,-1,-1,-1,-1,-1,-1,-1,-1,-1,-1,-1,-1,-1,-1,-1],"loss_changes":[3.3500754E10,1.0039507E10,1.5744434E10,2.7029105E10,6.8608497E9,2.3561011E8,1.2401711E9,3.1285453E8,1.0918166E9,7.193498E7,3.6273544E9,1.5486566E8,4.231424E7,1.2561582E8,7.444608E6,6.926916E5,2.2289818E8,6.609916E8,9.601536E6,4.8963584E7,5.7393E6,8.3277926E8,1.7344503E9,3.7723136E7,1.1482931E8,3.5227136E7,9.994496E6,4.5363724E7,1.7157472E7,2.90176E6,3.446464E6,6.0794875E4,1.997673E5,1.449943E8,7.667507E7,1.5016112E8,1.045895E8,5.60736E6,2.662272E6,2.9709216E7,1.3355008E7,1.0956825E6,9.69138E5,1.1864602E8,6.272439E8,6.3424256E8,5.0656E5,3.07968E7,1.1881984E7,1.0130842E8,4.5894622E5,6.372224E6,1.2003328E7,1.763008E6,5.179136E6,3.119064E6,9.625332E6,2.139464E6,3.495936E6,1.199744E6,1.492896E6,5.12832E5,2.184704E6,0E0,0E0,0E0,0E0,0E0,0E0,0E0,0E0,0E0,0E0,0E0,0E0,0E0,0E0,0E0,0E0,0E0,0E0,0E0,0E0,0E0,0E0,0E0,0E0,0E0,0E0,0E0,0E0,0E0,0E0,0E0,0E0,0E0,0E0,0E0,0E0,0E0,0E0,0E0,0E0,0E0,0E0,0E0,0E0,0E0,0E0,0E0,0E0,0E0,0E0,0E0,0E0,0E0,0E0,0E0,0E0,0E0,0E0,0E0,0E0,0E0,0E0,0E0,0E0],"parents":[2147483647,0,0,1,1,2,2,3,3,4,4,5,5,6,6,7,7,8,8,9,9,10,10,11,11,12,12,13,13,14,14,15,15,16,16,17,17,18,18,19,19,20,20,21,21,22,22,23,23,24,24,25,25,26,26,27,27,28,28,29,29,30,30,31,31,32,32,33,33,34,34,35,35,36,36,37,37,38,38,39,39,40,40,41,41,42,42,43,43,44,44,45,45,46,46,47,47,48,48,49,49,50,50,51,51,52,52,53,53,54,54,55,55,56,56,57,57,58,58,59,59,60,60,61,61,62,62],"right_children":[2,4,6,8,10,12,14,16,18,20,22,24,26,28,30,32,34,36,38,40,42,44,46,48,50,52,54,56,58,60,62,64,66,68,70,72,74,76,78,80,82,84,86,88,90,92,94,96,98,100,102,104,106,108,110,112,114,116,118,120,122,124,126,-1,-1,-1,-1,-1,-1,-1,-1,-1,-1,-1,-1,-1,-1,-1,-1,-1,-1,-1,-1,-1,-1,-1,-1,-1,-1,-1,-1,-1,-1,-1,-1,-1,-1,-1,-1,-1,-1,-1,-1,-1,-1,-1,-1,-1,-1,-1,-1,-1,-1,-1,-1,-1,-1,-1,-1,-1,-1,-1,-1,-1,-1,-1,-1],"split_conditions":[3.1666667E0,1E0,2E0,2E0,2E0,1.628E3,4.26E2,0E0,4.26E2,8E-3,1.25E2,5.7659508E1,1.984E3,1.75E2,1.9942857E2,7.5E1,1.391E3,1.25E2,1.06E2,1E0,1.5E2,7.5E1,4.26E2,8.014286E1,1E0,1.1E1,1.2E1,1E2,2.25E2,8.3E1,2.5036269E2,5E1,1.25E2,8E-3,1.2E1,7.5E1,1.75E2,2E0,2.0157143E2,2.195E3,7.8E1,1E2,2E2,5E1,4.26E2,1.75E2,8E-3,1E2,1E0,1E2,1.5E2,9E0,1.778E3,2.195E3,2.195E3,7.5E1,1.5E2,2E2,2.5E2,1E2,1E2,1.828E3,2.2542857E2,-7.429035E0,-4.8275275E0,-1.4722292E0,2.8567402E0,5.39972E1,4.4198322E1,7.352021E1,5.9555237E1,-5.526534E0,-1.1127565E0,3.1653159E0,8.398773E0,1.5847893E1,5.0818783E1,5.692639E1,6.603785E1,3.283647E-1,6.44651E1,-9.344868E0,-4.0785594E0,-3.0824385E0,9.145121E-1,5.167181E0,1.0111154E1,-7.3751054E0,-4.880555E0,-1.138043E0,-9.417242E0,3.1367698E0,8.392757E0,-9.409297E0,1.7727428E1,4.5573555E1,5.211819E1,5.7896523E1,3.1567657E0,5.505087E1,6.167345E1,1.6063371E-3,6.980377E0,1.10765175E2,8.214506E1,6.2949726E1,7.10469E1,9.6684E1,1.1837872E2,7.8928825E1,9.321504E1,-5.1754994E0,-2.1591005E0,1.7170696E0,4.4530616E0,6.736139E0,9.028678E0,1.1098951E1,1.48782625E1,4.4846447E1,5.25977E1,5.2700375E1,5.9596985E1,6.752973E1,8.09774E1,5.510992E1,6.3800556E1],"split_indices":[45,27,40,40,40,26,40,45,40,45,16,39,26,16,41,16,26,16,33,20,16,16,40,41,27,5,5,16,16,33,39,16,16,45,5,16,16,35,41,26,15,16,16,16,40,16,45,16,27,16,16,5,26,26,26,16,16,16,16,16,16,26,41,0,0,0,0,0,0,0,0,0,0,0,0,0,0,0,0,0,0,0,0,0,0,0,0,0,0,0,0,0,0,0,0,0,0,0,0,0,0,0,0,0,0,0,0,0,0,0,0,0,0,0,0,0,0,0,0,0,0,0,0,0,0,0,0],"split_type":[0,0,0,0,0,0,0,0,0,0,0,0,0,0,0,0,0,0,0,0,0,0,0,0,0,0,0,0,0,0,0,0,0,0,0,0,0,0,0,0,0,0,0,0,0,0,0,0,0,0,0,0,0,0,0,0,0,0,0,0,0,0,0,0,0,0,0,0,0,0,0,0,0,0,0,0,0,0,0,0,0,0,0,0,0,0,0,0,0,0,0,0,0,0,0,0,0,0,0,0,0,0,0,0,0,0,0,0,0,0,0,0,0,0,0,0,0,0,0,0,0,0,0,0,0,0,0],"sum_hessian":[5.552717E6,5.308468E6,2.44249E5,6.32457E5,4.676011E6,1.42655E5,1.01594E5,1.17164E5,5.15293E5,1.352215E6,3.323796E6,1.3181E5,1.0845E4,9.7113E4,4.481E3,9.84E2,1.1618E5,5.1159E5,3.703E3,1.346879E6,5.336E3,2.122539E6,1.201257E6,3.6867E4,9.4943E4,9.067E3,1.778E3,6.8889E4,2.8224E4,2.552E3,1.929E3,3.99E2,5.85E2,9.8778E4,1.7402E4,3.27327E5,1.84263E5,2.177E3,1.526E3,2.88E2,1.346591E6,3.295E3,2.041E3,8.04894E5,1.317645E6,1.106384E6,9.4873E4,2.9856E4,7.011E3,9.4567E4,3.76E2,1.318E3,7.749E3,2.72E2,1.506E3,1.3721E4,5.5168E4,1.8092E4,1.0132E4,9.91E2,1.561E3,5.86E2,1.343E3,1.53E2,2.46E2,4.46E2,1.39E2,8.0129E4,1.8649E4,6.069E3,1.1333E4,1.24221E5,2.03106E5,1.30234E5,5.4029E4,4.8E1,2.129E3,9.25E2,6.01E2,1.47E2,1.41E2,1.341756E6,4.835E3,9.72E2,2.323E3,1.5E3,5.41E2,3.10276E5,4.94618E5,1.218709E6,9.8936E4,7.81249E5,3.25135E5,9.4867E4,6E0,1.238E4,1.7476E4,6.971E3,4E1,4.0661E4,5.3906E4,1.91E2,1.85E2,9.2E1,1.226E3,4.429E3,3.32E3,1.83E2,8.9E1,1.121E3,3.85E2,6.989E3,6.732E3,3.4759E4,2.0409E4,1.1874E4,6.218E3,5.936E3,4.196E3,4.07E2,5.84E2,6.6E2,9.01E2,5.26E2,6E1,6.94E2,6.49E2],"tree_param":{"num_deleted":"0","num_feature":"46","num_nodes":"127","size_leaf_vector":"1"}},{"base_weights":[1.0241804E-2,-1.498669E1,3.2588852E2,9.1455734E1,-2.9382902E1,5.186052E2,5.4949795E1,4.8179193E2,2.6877847E0,-8.345157E1,-7.387968E0,5.0488742E2,6.177203E2,3.373549E1,5.171998E2,-2.2645851E1,4.86069E2,-7.936422E-1,4.884572E2,-8.38631E1,2.1069065E1,-4.1218464E1,1.9261135E1,5.0691696E2,2.1221035E1,7.397066E2,5.87912E2,1.3067536E1,8.429982E1,5.0427667E2,6.4838873E2,-3.9391254E1,1.1067156E1,4.749944E2,6.365685E2,-3.7514355E1,2.814155E1,-2.5192755E1,4.9327255E2,2.809464E2,-8.394242E1,-2.0200849E0,5.8178432E1,-3.7334377E1,-8.897074E1,2.7998377E1,-8.4683784E1,4.8337708E2,5.467534E2,6.360157E-1,7.51636E1,9.484828E2,7.204655E2,5.46934E2,6.9609094E2,-2.1281908E1,2.9041061E1,6.755268E1,1.13918434E2,4.7699658E2,5.485606E2,6.122425E2,7.549683E1,-5.2481384E0,-2.1705222E0,5.250365E-1,4.7531633E0,4.4850826E1,5.2501125E1,6.0331356E1,7.617455E1,-6.8297663E0,-2.9284222E0,9.431264E-1,5.9921136E0,-4.1048346E0,2.5694864E1,4.744383E1,6.1655445E1,1.3584912E1,8.305648E1,-8.411173E0,-3.7508142E0,-1.4374226E0,2.1388972E0,3.6995494E0,7.667208E0,-6.4489617E0,-3.0033116E0,-9.240039E0,-8.476726E0,9.2354697E-1,5.9783883E0,-8.482387E0,-5.991328E0,4.7011307E1,5.483192E1,5.3465847E1,6.1523396E1,-5.2241616E0,1.2497549E0,4.732816E0,9.214625E0,1.2763966E2,9.1469574E1,7.006395E1,8.947873E1,5.202255E1,5.8579914E1,6.760946E1,8.589137E1,-4.665204E0,-9.4016945E-1,2.0596628E0,4.0140977E0,6.0537753E0,8.123883E0,1.0648815E1,1.5556121E1,4.514862E1,5.214037E1,5.1774048E1,5.919523E1,7.06483E1,5.806264E1],"categories":[],"categories_nodes":[],"categories_segments":[],"categories_sizes":[],"default_left":[0,0,0,0,0,0,0,0,0,0,0,0,0,0,0,0,0,0,0,0,0,0,0,0,0,0,0,0,0,0,0,0,0,0,0,0,0,0,0,0,0,0,0,0,0,0,0,0,0,0,0,0,0,0,0,0,0,0,0,0,0,0,0,0,0,0,0,0,0,0,0,0,0,0,0,0,0,0,0,0,0,0,0,0,0,0,0,0,0,0,0,0,0,0,0,0,0,0,0,0,0,0,0,0,0,0,0,0,0,0,0,0,0,0,0,0,0,0,0,0,0,0,0,0,0],"id":2,"left_children":[1,3,5,7,9,11,13,15,17,19,21,23,25,27,29,31,33,35,37,39,41,43,45,47,49,51,53,55,57,59,61,63,65,67,69,71,73,75,77,79,81,83,85,87,89,91,93,95,97,99,101,103,105,107,109,111,113,115,117,119,121,123,-1,-1,-1,-1,-1,-1,-1,-1,-1,-1,-1,-1,-1,-1,-1,-1,-1,-1,-1,-1,-1,-1,-1,-1,-1,-1,-1,-1,-1,-1,-1,-1,-1,-1,-1,-1,-1,-1,-1,-1,-1,-1,-1,-1,-1,-1,-1,-1,-1,-1,-1,-1,-1,-1,-1,-1,-1,-1,-1,-1,-1,-1,-1],"loss_changes":[2.7133889E10,8.133498E9,1.2754129E10,2.1910477E10,5.5602135E9,1.9376128E8,9.9560774E8,2.5278669E8,8.7127296E8,5.815501E7,2.996286E9,1.2307251E8,6.2649856E7,1.0144822E8,7.225984E6,5.570704E5,1.933312E8,5.4350605E8,9.079936E6,3.8994944E7,4.543854E6,2.7160858E8,1.688379E9,1.1682816E8,5.8291675E5,1.2986624E7,6.144563E7,3.781027E7,1.3963408E7,4.643072E6,1.06336E6,1.5142762E5,6.932128E4,1.4312653E8,3.2676096E7,5.711184E7,1.701106E8,1.6712044E5,8.140608E6,2.3253368E7,1.0582016E7,9.459875E5,7.93982E5,2.685056E8,1.580224E6,1.02274906E9,4.95104E5,6.735667E7,3.807949E7,2.3961981E5,6.418325E4,1.978992E6,1.0156288E7,1.0200064E7,1.1882752E7,6.592441E6,4.408068E6,1.722736E6,3.13084E6,2.619328E6,1.754368E6,4.86632E5,0E0,0E0,0E0,0E0,0E0,0E0,0E0,0E0,0E0,0E0,0E0,0E0,0E0,0E0,0E0,0E0,0E0,0E0,0E0,0E0,0E0,0E0,0E0,0E0,0E0,0E0,0E0,0E0,0E0,0E0,0E0,0E0,0E0,0E0,0E0,0E0,0E0,0E0,0E0,0E0,0E0,0E0,0E0,0E0,0E0,0E0,0E0,0E0,0E0,0E0,0E0,0E0,0E0,0E0,0E0,0E0,0E0,0E0,0E0,0E0,0E0,0E0,0E0],"parents":[2147483647,0,0,1,1,2,2,3,3,4,4,5,5,6,6,7,7,8,8,9,9,10,10,11,11,12,12,13,13,14,14,15,15,16,16,17,17,18,18,19,19,20,20,21,21,22,22,23,23,24,24,25,25,26,26,27,27,28,28,29,29,30,30,31,31,32,32,33,33,34,34,35,35,36,36,37,37,38,38,39,39,40,40,41,41,42,42,43,43,44,44,45,45,46,46,47,47,48,48,49,49,50,50,51,51,52,52,53,53,54,54,55,55,56,56,57,57,58,58,59,59,60,60,61,61],"right_children":[2,4,6,8,10,12,14,16,18,20,22,24,26,28,30,32,34,36,38,40,42,44,46,48,50,52,54,56,58,60,62,64,66,68,70,72,74,76,78,80,82,84,86,88,90,92,94,96,98,100,102,104,106,108,110,112,114,116,118,120,122,124,-1,-1,-1,-1,-1,-1,-1,-1,-1,-1,-1,-1,-1,-1,-1,-1,-1,-1,-1,-1,-1,-1,-1,-1,-1,-1,-1,-1,-1,-1,-1,-1,-1,-1,-1,-1,-1,-1,-1,-1,-1,-1,-1,-1,-1,-1,-1,-1,-1,-1,-1,-1,-1,-1,-1,-1,-1,-1,-1,-1,-1,-1,-1],"split_conditions":[3.1666667E0,1E0,2E0,2E0,2E0,1.504E3,4.26E2,0E0,4.26E2,8E-3,1E2,1E0,1.1E1,1.75E2,1.59E3,1E2,1.602E3,1E2,2E0,1E0,1.5E2,4.26E2,4.26E2,1.25E2,1.75E2,9E0,1.828E3,1.25E2,2.25E2,1.11E2,1.891E3,7.5E1,1.5E2,1.25E2,1.932E3,5E1,1.5E2,1.4E0,1.44E3,4E0,7.8E1,1.25E2,1.75E2,5E1,7.5E1,1.5E2,2.195E3,1.31E2,1.34E2,1E2,2E2,7E0,1.828E3,1.67E3,2.195E3,7.5E1,1.5E2,2E2,2.75E2,2.0357143E2,1.9942857E2,1.2E1,7.549683E1,-5.2481384E0,-2.1705222E0,5.250365E-1,4.7531633E0,4.4850826E1,5.2501125E1,6.0331356E1,7.617455E1,-6.8297663E0,-2.9284222E0,9.431264E-1,5.9921136E0,-4.1048346E0,2.5694864E1,4.744383E1,6.1655445E1,1.3584912E1,8.305648E1,-8.411173E0,-3.7508142E0,-1.4374226E0,2.1388972E0,3.6995494E0,7.667208E0,-6.4489617E0,-3.0033116E0,-9.240039E0,-8.476726E0,9.2354697E-1,5.9783883E0,-8.482387E0,-5.991328E0,4.7011307E1,5.483192E1,5.3465847E1,6.1523396E1,-5.2241616E0,1.2497549E0,4.732816E0,9.214625E0,1.2763966E2,9.1469574E1,7.006395E1,8.947873E1,5.202255E1,5.8579914E1,6.760946E1,8.589137E1,-4.665204E0,-9.4016945E-1,2.0596628E0,4.0140977E0,6.0537753E0,8.123883E0,1.0648815E1,1.5556121E1,4.514862E1,5.214037E1,5.1774048E1,5.919523E1,7.06483E1,5.806264E1],"split_indices":[45,27,40,40,40,26,40,45,40,45,16,27,5,16,26,16,26,16,34,20,16,40,40,16,16,5,26,16,16,33,26,16,16,16,26,16,16,22,26,18,15,16,16,16,16,16,26,33,33,16,16,5,26,26,26,16,16,16,16,41,41,5,0,0,0,0,0,0,0,0,0,0,0,0,0,0,0,0,0,0,0,0,0,0,0,0,0,0,0,0,0,0,0,0,0,0,0,0,0,0,0,0,0,0,0,0,0,0,0,0,0,0,0,0,0,0,0,0,0,0,0,0,0,0,0],"split_type":[0,0,0,0,0,0,0,0,0,0,0,0,0,0,0,0,0,0,0,0,0,0,0,0,0,0,0,0,0,0,0,0,0,0,0,0,0,0,0,0,0,0,0,0,0,0,0,0,0,0,0,0,0,0,0,0,0,0,0,0,0,0,0,0,0,0,0,0,0,0,0,0,0,0,0,0,0,0,0,0,0,0,0,0,0,0,0,0,0,0,0,0,0,0,0,0,0,0,0,0,0,0,0,0,0,0,0,0,0,0,0,0,0,0,0,0,0,0,0,0,0,0,0,0,0],"sum_hessian":[5.552059E6,5.307795E6,2.44264E5,6.32348E5,4.675447E6,1.42736E5,1.01528E5,1.1716E5,5.15188E5,1.351975E6,3.323472E6,1.25388E5,1.7348E4,9.7074E4,4.454E3,9.85E2,1.16175E5,5.11523E5,3.665E3,1.346673E6,5.302E3,1.46442E6,1.859052E6,1.24864E5,5.24E2,3.402E3,1.3946E4,6.8909E4,2.8165E4,4.059E3,3.95E2,6.58E2,3.27E2,1.08216E5,7.959E3,2.25433E5,2.8609E5,3.4E1,3.631E3,2.92E2,1.346381E6,3.269E3,2.033E3,1.354268E6,1.10152E5,1.714904E6,1.44148E5,7.8494E4,4.637E4,3.8E2,1.44E2,2.83E2,3.119E3,1.0119E4,3.827E3,2.1873E4,4.7036E4,1.7994E4,1.0171E4,2.519E3,1.54E3,3E2,9.5E1,3.77E2,2.81E2,2.83E2,4.4E1,7.0757E4,3.7459E4,6.293E3,1.666E3,4.7555E4,1.77878E5,1.80073E5,1.06017E5,3.3E1,1E0,3.154E3,4.77E2,2.32E2,6E1,1.341489E6,4.892E3,2.14E3,1.129E3,9.49E2,1.084E3,2.86965E5,1.067303E6,6.0648E4,4.9504E4,1.078355E6,6.36549E5,1.43335E5,8.13E2,6.5188E4,1.3306E4,3.9417E4,6.953E3,6.9E1,3.11E2,5.6E1,8.8E1,2.3E1,2.6E2,2.805E3,3.14E2,6.006E3,4.113E3,3.413E3,4.14E2,6.975E3,1.4898E4,2.6715E4,2.0321E4,1.19E4,6.094E3,8.634E3,1.537E3,1.607E3,9.12E2,9.08E2,6.32E2,7E1,2.3E2],"tree_param":{"num_deleted":"0","num_feature":"46","num_nodes":"125","size_leaf_vector":"1"}},{"base_weights":[-2.6281938E-2,-1.3497712E1,2.9309933E2,-7.589097E1,3.9528308E0,4.66796E2,4.9787872E1,-7.689842E1,-4.3236584E1,-1.5261576E1,3.68738E1,4.557471E2,5.6586896E2,3.0491858E1,4.676564E2,-7.7089745E1,-6.47458E1,-7.69093E1,-3.5201717E1,2.659556E1,-2.2011803E1,2.9710154E1,8.337834E1,4.1158597E2,4.7691473E2,6.6068225E2,5.3483734E2,1.1750832E1,7.6013115E1,4.2182642E2,5.3166125E2,-7.6717445E1,-7.863059E1,-7.910827E1,-5.429163E1,-7.710142E1,-6.701002E1,-3.8821354E1,-2.0555359E1,7.62743E1,-7.430468E1,-4.3697147E1,-9.773195E0,8.116306E1,2.7113293E1,7.624608E1,1.234937E2,3.9599646E2,5.2125793E2,4.838795E2,3.6724142E2,6.413522E2,8.289355E2,4.9920364E2,6.271896E2,-1.9411053E1,2.6148827E1,6.1016796E1,1.026408E2,4.5123227E2,3.619867E2,5.840684E2,4.8789584E2,-1.0677181E1,-7.6715035E0,-8.259303E0,-7.672359E0,-7.925712E0,-6.922896E0,-5.468908E0,-3.7586315E0,-7.790813E0,-7.5509057E0,-6.792373E0,-2.010489E0,-4.8106713E0,-3.7769082E0,-2.1175752E0,5.312318E-1,5.8489995E0,3.585287E1,-8.8995963E-1,-7.5203905E0,-5.5851684E0,-3.6959617E0,-2.0155742E0,5.296117E-2,2.4292519E1,3.3102129E0,2.426393E0,7.7309318E0,7.8300095E0,-4.3791943E0,5.6558585E0,1.3500346E1,3.6495293E1,4.1825375E1,4.980174E1,6.085568E1,4.6980446E1,5.53295E1,2.9228437E1,4.0348537E1,7.688529E1,6.1605335E1,7.771105E1,9.774259E1,4.7640392E1,5.377022E1,5.9428608E1,6.997665E1,-4.214782E0,-8.5829973E-1,1.8505286E0,3.6132462E0,5.4671435E0,7.3292704E0,8.933066E0,1.2140862E1,4.1193657E1,5.061985E1,3.0970749E1,3.916505E1,5.648171E1,7.266997E1,4.3627766E1,5.4949745E1],"categories":[],"categories_nodes":[],"categories_segments":[],"categories_sizes":[],"default_left":[0,0,0,0,0,0,0,0,0,0,0,0,0,0,0,0,0,0,0,0,0,0,0,0,0,0,0,0,0,0,0,0,0,0,0,0,0,0,0,0,0,0,0,0,0,0,0,0,0,0,0,0,0,0,0,0,0,0,0,0,0,0,0,0,0,0,0,0,0,0,0,0,0,0,0,0,0,0,0,0,0,0,0,0,0,0,0,0,0,0,0,0,0,0,0,0,0,0,0,0,0,0,0,0,0,0,0,0,0,0,0,0,0,0,0,0,0,0,0,0,0,0,0,0,0,0,0],"id":3,"left_children":[1,3,5,7,9,11,13,15,17,19,21,23,25,27,29,31,33,35,37,39,41,43,45,47,49,51,53,55,57,59,61,63,65,67,69,71,73,75,77,79,81,83,85,87,89,91,93,95,97,99,101,103,105,107,109,111,113,115,117,119,121,123,125,-1,-1,-1,-1,-1,-1,-1,-1,-1,-1,-1,-1,-1,-1,-1,-1,-1,-1,-1,-1,-1,-1,-1,-1,-1,-1,-1,-1,-1,-1,-1,-1,-1,-1,-1,-1,-1,-1,-1,-1,-1,-1,-1,-1,-1,-1,-1,-1,-1,-1,-1,-1,-1,-1,-1,-1,-1,-1,-1,-1,-1,-1,-1,-1],"loss_changes":[2.1928727E10,5.7806715E9,1.031204E10,3.8170624E7,2.624387E9,1.5558451E8,8.194889E8,2.612224E6,9.393972E6,7.402132E8,5.0938982E8,1.1953766E8,4.166144E7,8.2879224E7,1.2934656E7,6.2976E5,2.616232E6,7.556E3,1.485832E6,1.8236836E9,5.987342E8,1.7703322E8,5.838579E7,7.076506E7,6.595584E7,1.0906752E7,3.510963E7,3.0877436E7,1.13072E7,4.445152E6,3.999488E6,5.5808E4,1.622912E6,5.324E3,6.503E4,2.536E3,4.4201875E3,2.17872E5,8.932375E4,1.2237262E9,7.058816E6,6.664781E7,1.5426086E8,4.9489725E8,1.8039776E8,4.273005E7,2.372704E7,2.4961536E7,1.0172032E7,7.927603E7,1.3938496E7,9.716096E6,2.00312E6,6.565888E6,6.73152E6,5.3541335E6,3.591334E6,1.408E6,2.53864E6,3.57568E6,1.224792E6,1.909792E6,3.016336E6,0E0,0E0,0E0,0E0,0E0,0E0,0E0,0E0,0E0,0E0,0E0,0E0,0E0,0E0,0E0,0E0,0E0,0E0,0E0,0E0,0E0,0E0,0E0,0E0,0E0,0E0,0E0,0E0,0E0,0E0,0E0,0E0,0E0,0E0,0E0,0E0,0E0,0E0,0E0,0E0,0E0,0E0,0E0,0E0,0E0,0E0,0E0,0E0,0E0,0E0,0E0,0E0,0E0,0E0,0E0,0E0,0E0,0E0,0E0,0E0,0E0,0E0,0E0,0E0],"parents":[2147483647,0,0,1,1,2,2,3,3,4,4,5,5,6,6,7,7,8,8,9,9,10,10,11,11,12,12,13,13,14,14,15,15,16,16,17,17,18,18,19,19,20,20,21,21,22,22,23,23,24,24,25,25,26,26,27,27,28,28,29,29,30,30,31,31,32,32,33,33,34,34,35,35,36,36,37,37,38,38,39,39,40,40,41,41,42,42,43,43,44,44,45,45,46,46,47,47,48,48,49,49,50,50,51,51,52,52,53,53,54,54,55,55,56,56,57,57,58,58,59,59,60,60,61,61,62,62],"right_children":[2,4,6,8,10,12,14,16,18,20,22,24,26,28,30,32,34,36,38,40,42,44,46,48,50,52,54,56,58,60,62,64,66,68,70,72,74,76,78,80,82,84,86,88,90,92,94,96,98,100,102,104,106,108,110,112,114,116,118,120,122,124,126,-1,-1,-1,-1,-1,-1,-1,-1,-1,-1,-1,-1,-1,-1,-1,-1,-1,-1,-1,-1,-1,-1,-1,-1,-1,-1,-1,-1,-1,-1,-1,-1,-1,-1,-1,-1,-1,-1,-1,-1,-1,-1,-1,-1,-1,-1,-1,-1,-1,-1,-1,-1,-1,-1,-1,-1,-1,-1,-1,-1,-1,-1,-1,-1],"split_conditions":[3.1666667E0,-9.082241E-1,2E0,-9.5084745E-1,1.25E2,1.556E3,4.26E2,-9.726776E-1,2.5E1,2E0,2E2,5.9862938E1,1.2E1,1.75E2,1.99E2,2E0,2.5E1,6.3E0,7.5E1,1E0,7.5E1,-2.7012228E2,2.5E2,9.771429E1,1.2E1,1.932E3,1.857E3,1.25E2,2.25E2,2.3229425E2,2.6510403E2,1E0,7.5E1,2.1E1,5E1,6E0,8.99E2,5E1,1E2,1.1944444E0,-7.936508E-3,5E1,1E2,2E0,2.4242798E2,4.26E2,2E0,1E2,1.2E2,1.203E3,1.367E3,1E1,2.195E3,1.719E3,2.058E3,7.5E1,1.5E2,2E2,2.5E2,1.7485715E2,1.8285715E2,2.3057143E2,2.2471428E2,-1.0677181E1,-7.6715035E0,-8.259303E0,-7.672359E0,-7.925712E0,-6.922896E0,-5.468908E0,-3.7586315E0,-7.790813E0,-7.5509057E0,-6.792373E0,-2.010489E0,-4.8106713E0,-3.7769082E0,-2.1175752E0,5.312318E-1,5.8489995E0,3.585287E1,-8.8995963E-1,-7.5203905E0,-5.5851684E0,-3.6959617E0,-2.0155742E0,5.296117E-2,2.4292519E1,3.3102129E0,2.426393E0,7.7309318E0,7.8300095E0,-4.3791943E0,5.6558585E0,1.3500346E1,3.6495293E1,4.1825375E1,4.980174E1,6.085568E1,4.6980446E1,5.53295E1,2.9228437E1,4.0348537E1,7.688529E1,6.1605335E1,7.771105E1,9.774259E1,4.7640392E1,5.377022E1,5.9428608E1,6.997665E1,-4.214782E0,-8.5829973E-1,1.8505286E0,3.6132462E0,5.4671435E0,7.3292704E0,8.933066E0,1.2140862E1,4.1193657E1,5.061985E1,3.0970749E1,3.916505E1,5.648171E1,7.266997E1,4.3627766E1,5.4949745E1],"split_indices":[45,45,40,45,16,26,40,45,16,40,16,39,5,16,37,40,16,22,16,30,16,42,16,37,5,26,26,16,16,39,39,20,16,18,16,17,33,16,16,45,45,16,16,40,42,40,40,16,37,26,26,5,26,26,26,16,16,16,16,37,37,37,37,0,0,0,0,0,0,0,0,0,0,0,0,0,0,0,0,0,0,0,0,0,0,0,0,0,0,0,0,0,0,0,0,0,0,0,0,0,0,0,0,0,0,0,0,0,0,0,0,0,0,0,0,0,0,0,0,0,0,0,0,0,0,0,0],"split_type":[0,0,0,0,0,0,0,0,0,0,0,0,0,0,0,0,0,0,0,0,0,0,0,0,0,0,0,0,0,0,0,0,0,0,0,0,0,0,0,0,0,0,0,0,0,0,0,0,0,0,0,0,0,0,0,0,0,0,0,0,0,0,0,0,0,0,0,0,0,0,0,0,0,0,0,0,0,0,0,0,0,0,0,0,0,0,0,0,0,0,0,0,0,0,0,0,0,0,0,0,0,0,0,0,0,0,0,0,0,0,0,0,0,0,0,0,0,0,0,0,0,0,0,0,0,0,0],"sum_hessian":[5.553231E6,5.309231E6,2.44E5,1.160377E6,4.148854E6,1.42366E5,1.01634E5,1.125647E6,3.473E4,2.619801E6,1.529053E6,1.28087E5,1.4279E4,9.7149E4,4.485E3,1.108195E6,1.7452E4,6.689E3,2.8041E4,3.63818E5,2.255983E6,1.324956E6,2.04097E5,4.1509E4,8.6578E4,3.516E3,1.0763E4,6.8818E4,2.8331E4,2.618E3,1.867E3,8.92581E5,2.15614E5,7.349E3,1.0103E4,6.555E3,1.34E2,2.2483E4,5.558E3,2.43788E5,1.2003E5,8.13881E5,1.442102E6,6.3657E4,1.261299E6,1.7329E5,3.0807E4,3.6347E4,5.162E3,8.1405E4,5.173E3,3.158E3,3.58E2,7.771E3,2.992E3,2.1748E4,4.707E4,1.8126E4,1.0205E4,1.751E3,8.67E2,8.44E2,1.023E3,6.8E1,8.92513E5,7.004E4,1.45574E5,7.233E3,1.16E2,9.866E3,2.37E2,4.319E3,2.236E3,1.31E2,3E0,2.284E3,2.0199E4,5.428E3,1.3E2,2.29339E5,1.4449E4,1.628E3,1.18402E5,2.90254E5,5.23627E5,7.18271E5,7.23831E5,1.458E4,4.9077E4,1.193549E6,6.775E4,1.70375E5,2.915E3,4.521E3,2.6286E4,1.5185E4,2.1162E4,4.082E3,1.08E3,6.7688E4,1.3717E4,1.689E3,3.484E3,5.18E2,2.64E3,2.7E2,8.8E1,4.889E3,2.882E3,2.065E3,9.27E2,7.015E3,1.4733E4,2.6661E4,2.0409E4,1.1953E4,6.173E3,5.974E3,4.231E3,1.026E3,7.25E2,3.18E2,5.49E2,7.48E2,9.6E1,5.61E2,4.62E2],"tree_param":{"num_deleted":"0","num_feature":"46","num_nodes":"127","size_leaf_vector":"1"}},{"base_weights":[3.29388E-2,1.4279507E2,-2.3761057E1,7.6081314E1,3.7558408E2,-6.879366E1,-9.608298E0,-1.9140131E1,1.103263E2,2.8742398E2,4.024542E2,-6.936053E1,-5.003758E1,-1.9602884E1,2.2534588E1,-3.7334858E1,-5.7903476E0,9.050705E1,2.822337E2,3.4950128E2,2.6841782E2,3.5971426E2,4.216227E2,-6.926723E1,-7.044482E1,-4.3386127E1,-7.0141365E1,-7.329326E0,-2.149619E1,2.1527634E1,5.7449852E1,-5.760928E1,-2.9880133E1,-1.2007138E1,2.0161788E0,2.7734235E2,6.494916E1,3.3251532E2,1.0015739E2,3.0727167E2,3.9315894E2,2.3268898E2,3.4555524E2,3.4309045E2,4.392025E2,4.1663467E2,5.890842E2,-6.9130936E1,-6.960443E1,-7.501842E1,-7.0278373E0,-5.0901356E1,-3.725699E1,-2.0548386E1,-7.0324776E1,-2.669931E1,-4.865592E0,-4.037198E1,-1.9898901E1,1.786328E1,2.8071184E1,5.190609E1,9.9685326E1,-7.476533E0,-5.0486617E0,-3.8267553E0,-2.6105165E0,-1.2759013E0,1.3397827E0,9.418863E-2,3.274302E0,3.2914104E1,9.932526E0,1.0984661E1,3.1582477E0,2.1904238E1,3.8567776E1,3.6126068E0,2.4191942E1,3.194248E1,2.2704811E1,3.86691E1,5.34047E1,2.8873163E1,1.3439191E1,2.9784555E1,3.9160297E1,3.4879223E1,2.0102201E1,4.238253E1,5.4111843E1,4.5101723E1,3.9858185E1,5.388856E1,6.532784E1,-9.655034E0,-6.9128723E0,-6.9144883E0,-6.983974E0,-6.9573717E0,-8.024653E0,-5.1234818E0,-4.626135E0,-2.452927E0,-3.7573128E0,-2.6777055E0,1.8441842E0,-7.093248E0,-6.923303E0,-2.3203619E0,-3.3147275E0,-2.0277088E0,-2.3777345E-1,-4.7428584E0,-3.4940102E0,-1.0162632E0,-2.3572116E0,1.6765397E0,2.670678E0,3.015998E0,4.2984357E-1,4.7647614E0,8.054923E0,8.70494E0,1.3067406E1],"categories":[],"categories_nodes":[],"categories_segments":[],"categories_sizes":[],"default_left":[0,0,0,0,0,0,0,0,0,0,0,0,0,0,0,0,0,0,0,0,0,0,0,0,0,0,0,0,0,0,0,0,0,0,0,0,0,0,0,0,0,0,0,0,0,0,0,0,0,0,0,0,0,0,0,0,0,0,0,0,0,0,0,0,0,0,0,0,0,0,0,0,0,0,0,0,0,0,0,0,0,0,0,0,0,0,0,0,0,0,0,0,0,0,0,0,0,0,0,0,0,0,0,0,0,0,0,0,0,0,0,0,0,0,0,0,0,0,0,0,0,0,0,0,0],"id":4,"left_children":[1,3,5,7,9,11,13,15,17,19,21,23,25,27,29,31,33,35,37,39,41,43,45,47,49,51,53,55,57,59,61,63,65,67,69,71,73,75,77,79,81,83,85,87,89,91,93,95,97,99,-1,101,103,105,107,109,111,113,115,117,119,121,123,-1,-1,-1,-1,-1,-1,-1,-1,-1,-1,-1,-1,-1,-1,-1,-1,-1,-1,-1,-1,-1,-1,-1,-1,-1,-1,-1,-1,-1,-1,-1,-1,-1,-1,-1,-1,-1,-1,-1,-1,-1,-1,-1,-1,-1,-1,-1,-1,-1,-1,-1,-1,-1,-1,-1,-1,-1,-1,-1,-1,-1,-1],"loss_changes":[1.886504E10,1.2321422E10,3.033876E9,2.010846E9,4.1852314E8,1.2099072E7,1.1635698E9,3.9619224E7,1.5452503E9,4.8616704E7,1.1080909E8,1.07008E5,4.462776E6,6.420205E7,3.020272E7,1.0431488E7,4.566066E6,1.9418591E9,4.2919373E8,1.771456E7,8.704307E7,5.527296E7,7.785472E7,4.1984E4,6.1312E4,1.154116E6,7.4064E4,1.7620876E7,7.216704E7,2.0021344E7,5.633224E6,2.263836E6,1.597124E6,1.000604E6,1.3768E6,4.5119974E8,5.3590733E8,2.2153754E8,9.20977E7,4.726304E6,4.124608E6,1.1899597E8,2.186368E7,2.8032256E7,1.1134336E7,5.617869E7,8.355008E6,3.7376E4,2.688E4,8.1438E4,0E0,1.507E4,5.4714E4,8.265249E3,5.76E2,9.38364E5,1.2559706E7,7.156512E6,7.892518E7,5.196528E6,1.4884064E7,2.592912E6,1.082286E6,0E0,0E0,0E0,0E0,0E0,0E0,0E0,0E0,0E0,0E0,0E0,0E0,0E0,0E0,0E0,0E0,0E0,0E0,0E0,0E0,0E0,0E0,0E0,0E0,0E0,0E0,0E0,0E0,0E0,0E0,0E0,0E0,0E0,0E0,0E0,0E0,0E0,0E0,0E0,0E0,0E0,0E0,0E0,0E0,0E0,0E0,0E0,0E0,0E0,0E0,0E0,0E0,0E0,0E0,0E0,0E0,0E0,0E0,0E0,0E0,0E0,0E0],"parents":[2147483647,0,0,1,1,2,2,3,3,4,4,5,5,6,6,7,7,8,8,9,9,10,10,11,11,12,12,13,13,14,14,15,15,16,16,17,17,18,18,19,19,20,20,21,21,22,22,23,23,24,24,25,25,26,26,27,27,28,28,29,29,30,30,31,31,32,32,33,33,34,34,35,35,36,36,37,37,38,38,39,39,40,40,41,41,42,42,43,43,44,44,45,45,46,46,47,47,48,48,49,49,51,51,52,52,53,53,54,54,55,55,56,56,57,57,58,58,59,59,60,60,61,61,62,62],"right_children":[2,4,6,8,10,12,14,16,18,20,22,24,26,28,30,32,34,36,38,40,42,44,46,48,50,52,54,56,58,60,62,64,66,68,70,72,74,76,78,80,82,84,86,88,90,92,94,96,98,100,-1,102,104,106,108,110,112,114,116,118,120,122,124,-1,-1,-1,-1,-1,-1,-1,-1,-1,-1,-1,-1,-1,-1,-1,-1,-1,-1,-1,-1,-1,-1,-1,-1,-1,-1,-1,-1,-1,-1,-1,-1,-1,-1,-1,-1,-1,-1,-1,-1,-1,-1,-1,-1,-1,-1,-1,-1,-1,-1,-1,-1,-1,-1,-1,-1,-1,-1,-1,-1,-1,-1],"split_conditions":[1E0,2.5172415E0,-9.2743105E-1,0E0,4.133333E0,-9.726776E-1,1.04E-1,-4.6E-1,1.6100945E2,-1.4164622E2,6.079317E1,2.71E2,2E0,2E0,6.3E0,-7.326733E-1,-2.2330096E-1,-1.5134897E2,8E-3,8.2E1,1.050536E2,9.442857E1,6.3E0,9.956023E1,1.5699666E2,-9.5084745E-1,2.005E3,2.005E3,-5.859375E-1,1.08E0,7.6E1,-8.913044E-1,-6.25E-1,6.3E0,6.3E0,8E-3,2E0,5.9E1,1.556962E0,-2.7012228E2,6.3E0,2E0,8.2E1,3.4925926E1,1.2428571E2,1.5E2,2.8E1,1E0,2E0,1.1116461E2,-7.0278373E0,1.1E1,2E0,1.8E2,-9.5084745E-1,2.7080624E1,-8.7593055E-1,-7.1568626E-1,0E0,1.545E3,9.857142E0,3.04E2,3.04E2,-7.476533E0,-5.0486617E0,-3.8267553E0,-2.6105165E0,-1.2759013E0,1.3397827E0,9.418863E-2,3.274302E0,3.2914104E1,9.932526E0,1.0984661E1,3.1582477E0,2.1904238E1,3.8567776E1,3.6126068E0,2.4191942E1,3.194248E1,2.2704811E1,3.86691E1,5.34047E1,2.8873163E1,1.3439191E1,2.9784555E1,3.9160297E1,3.4879223E1,2.0102201E1,4.238253E1,5.4111843E1,4.5101723E1,3.9858185E1,5.388856E1,6.532784E1,-9.655034E0,-6.9128723E0,-6.9144883E0,-6.983974E0,-6.9573717E0,-8.024653E0,-5.1234818E0,-4.626135E0,-2.452927E0,-3.7573128E0,-2.6777055E0,1.8441842E0,-7.093248E0,-6.923303E0,-2.3203619E0,-3.3147275E0,-2.0277088E0,-2.3777345E-1,-4.7428584E0,-3.4940102E0,-1.0162632E0,-2.3572116E0,1.6765397E0,2.670678E0,3.015998E0,4.2984357E-1,4.7647614E0,8.054923E0,8.70494E0,1.3067406E1],"split_indices":[27,45,45,45,45,45,45,45,42,42,39,33,27,27,22,45,45,42,45,33,42,37,22,39,39,45,32,32,45,45,17,45,45,22,22,45,33,33,45,42,22,33,33,45,37,34,28,20,33,39,0,17,29,33,45,42,45,45,45,26,45,25,25,0,0,0,0,0,0,0,0,0,0,0,0,0,0,0,0,0,0,0,0,0,0,0,0,0,0,0,0,0,0,0,0,0,0,0,0,0,0,0,0,0,0,0,0,0,0,0,0,0,0,0,0,0,0,0,0,0,0,0,0,0,0],"split_type":[0,0,0,0,0,0,0,0,0,0,0,0,0,0,0,0,0,0,0,0,0,0,0,0,0,0,0,0,0,0,0,0,0,0,0,0,0,0,0,0,0,0,0,0,0,0,0,0,0,0,0,0,0,0,0,0,0,0,0,0,0,0,0,0,0,0,0,0,0,0,0,0,0,0,0,0,0,0,0,0,0,0,0,0,0,0,0,0,0,0,0,0,0,0,0,0,0,0,0,0,0,0,0,0,0,0,0,0,0,0,0,0,0,0,0,0,0,0,0,0,0,0,0,0,0],"sum_hessian":[5.553632E6,7.93384E5,4.760248E6,6.1666E5,1.76724E5,1.138298E6,3.62195E6,1.63112E5,4.53548E5,4.1284E4,1.3544E5,1.104902E6,3.3396E4,2.76286E6,8.5909E5,6.9029E4,9.4083E4,4.06665E5,4.6883E4,9.673E3,3.1611E4,4.1942E4,9.3498E4,1.017422E6,8.748E4,2.5096E4,8.3E3,3.69238E5,2.393622E6,8.3501E5,2.408E4,1.8556E4,5.0473E4,5.2374E4,4.1709E4,4.8934E4,3.57731E5,3.6737E4,1.0146E4,4.921E3,4.752E3,2.1607E4,1.0004E4,3.4692E4,7.25E3,9.0797E4,2.701E3,7.24703E5,2.92719E5,3.056E3,8.4424E4,1.127E4,1.3826E4,3.1E1,8.269E3,4.1664E4,3.27574E5,1.86746E5,2.206876E6,5.35267E5,2.99743E5,2.1288E4,2.792E3,5.441E3,1.3115E4,1.5663E4,3.481E4,5.0869E4,1.505E3,4.0301E4,1.408E3,3.7904E4,1.103E4,1.52512E5,2.05219E5,1.1722E4,2.5015E4,6.99E3,3.156E3,4.271E3,6.5E2,4.547E3,2.05E2,1.376E4,7.847E3,4.917E3,5.087E3,3.3352E4,1.34E3,6.304E3,9.46E2,3.1252E4,5.9545E4,1.521E3,1.18E3,5.5E1,7.24648E5,9.9228E4,1.93491E5,1.504E3,1.552E3,1.0505E4,7.65E2,3.37E2,1.3489E4,2.7E1,4E0,5.271E3,2.998E3,2.702E4,1.4644E4,4.5529E4,2.82045E5,8.1222E4,1.05524E5,6.04523E5,1.602353E6,4.76157E5,5.911E4,2.75533E5,2.421E4,1.8535E4,2.753E3,1.986E3,8.06E2],"tree_param":{"num_deleted":"0","num_feature":"46","num_nodes":"125","size_leaf_vector":"1"}},{"base_weights":[-2.484643E-2,1.2834958E2,-2.1405804E1,3.910649E2,7.811546E-1,-6.525203E1,-3.9843614E0,3.456365E2,4.1535147E2,-5.297295E0,3.961323E2,-6.1648968E1,-7.238801E1,1.0295515E0,-6.609462E1,-2.3672703E1,3.4765646E2,4.105765E2,6.008914E2,-1.2072976E1,1.3020183E1,3.5832547E2,4.7672705E2,-6.212214E1,1.390477E0,-7.314597E1,7.937802E1,-1.9487144E1,9.141085E0,-6.327017E1,-7.433442E1,-4.0648422E1,-1.0458845E1,3.7155862E2,3.335523E2,3.9671872E2,4.6294815E2,5.679361E2,7.557265E2,-4.016232E1,-8.43773E0,1.4394357E1,-2.9767338E1,3.2608084E2,3.9198425E2,5.358087E2,4.4073135E2,-6.209115E1,-7.1948824E0,-7.1057315E0,2.0138382E1,-7.421877E1,7.767186E0,3.2458725E2,-8.469716E1,-5.42577E1,-1.7152311E1,2.3520908E0,2.0327547E1,-6.3278294E1,7.031862E1,-1.39193735E1,-7.495542E1,-5.2489753E0,-3.1867728E0,-1.2072645E0,3.7895307E-2,3.4319458E1,3.8669487E1,-4.3203044E0,3.3680317E1,4.2403763E1,3.7237133E1,5.05327E1,4.380646E1,5.4805233E1,6.776498E1,7.273232E1,1.0171959E2,-5.716382E0,-3.3922234E0,-9.231233E-1,4.765773E0,1.3528754E0,7.9971666E0,-3.1354837E0,2.2945084E1,3.5553997E1,2.6445591E1,4.5949955E1,3.386088E1,5.088595E1,6.365155E1,4.0653683E1,5.3733807E1,-8.809401E0,-6.2088976E0,8.259999E-1,-1.505415E0,9.5286196E-1,2.5474575E0,-7.764531E0,-6.950119E0,1.2113289E0,-3.4128835E0,2.2867558E1,4.810703E1,-8.521384E0,1.1085514E1,-6.7118425E0,-4.5209613E0,-5.6720215E-1,-2.2210712E0,1.5299292E-1,6.050874E0,1.9540627E0,8.239613E0,-6.3278947E0,-9.814885E-2,3.7067773E0,1.0945625E1,3.375002E0,-6.8485866E0,-7.498201E0,1.03462515E1],"categories":[],"categories_nodes":[],"categories_segments":[],"categories_sizes":[],"default_left":[0,0,0,0,0,0,0,0,0,0,0,0,0,0,0,0,0,0,0,0,0,0,0,0,0,0,0,0,0,0,0,0,0,0,0,0,0,0,0,0,0,0,0,0,0,0,0,0,0,0,0,0,0,0,0,0,0,0,0,0,0,0,0,0,0,0,0,0,0,0,0,0,0,0,0,0,0,0,0,0,0,0,0,0,0,0,0,0,0,0,0,0,0,0,0,0,0,0,0,0,0,0,0,0,0,0,0,0,0,0,0,0,0,0,0,0,0,0,0,0,0,0,0,0,0],"id":5,"left_children":[1,3,5,7,9,11,13,15,17,19,21,23,25,27,29,31,33,35,37,39,41,43,45,47,49,51,53,55,57,59,61,63,65,67,69,71,73,75,77,79,81,83,85,87,89,91,93,95,-1,97,99,101,103,105,107,109,111,113,115,117,119,121,123,-1,-1,-1,-1,-1,-1,-1,-1,-1,-1,-1,-1,-1,-1,-1,-1,-1,-1,-1,-1,-1,-1,-1,-1,-1,-1,-1,-1,-1,-1,-1,-1,-1,-1,-1,-1,-1,-1,-1,-1,-1,-1,-1,-1,-1,-1,-1,-1,-1,-1,-1,-1,-1,-1,-1,-1,-1,-1,-1,-1,-1,-1],"loss_changes":[1.5239911E10,2.6567459E10,3.6357092E9,2.8572877E8,1.2823416E9,3.479347E7,1.06075226E9,6.735053E7,1.4933811E8,6.5226092E7,2.4449152E7,2.6825728E7,5.2239616E7,5.2452822E8,5.9168E6,1.0993775E5,3.0143488E7,1.1927962E8,2.1175296E7,3.9172756E7,8.344148E6,5.84576E6,5.244352E6,2.67264E5,1.0675194E6,3.921971E7,9.083281E7,7.24985E7,1.7154158E8,2.10176E5,2.43552E6,2.0681906E4,4.8668066E3,1.4167552E7,6.918144E7,8.642355E7,3.6092416E7,7.25312E6,4.755808E6,4.661712E6,1.5119888E7,7.803456E6,1.824417E6,5.02E6,9.531072E6,2.311392E6,5.090144E6,4.48E4,0E0,5.634029E5,1.18084125E5,7.202816E6,1.0770785E6,1.3472728E7,1.46149E5,6.535872E6,4.8596736E7,6.721106E7,4.166605E7,7.616E3,1.1559016E4,1.7242735E6,3.12768E5,0E0,0E0,0E0,0E0,0E0,0E0,0E0,0E0,0E0,0E0,0E0,0E0,0E0,0E0,0E0,0E0,0E0,0E0,0E0,0E0,0E0,0E0,0E0,0E0,0E0,0E0,0E0,0E0,0E0,0E0,0E0,0E0,0E0,0E0,0E0,0E0,0E0,0E0,0E0,0E0,0E0,0E0,0E0,0E0,0E0,0E0,0E0,0E0,0E0,0E0,0E0,0E0,0E0,0E0,0E0,0E0,0E0,0E0,0E0,0E0,0E0,0E0],"parents":[2147483647,0,0,1,1,2,2,3,3,4,4,5,5,6,6,7,7,8,8,9,9,10,10,11,11,12,12,13,13,14,14,15,15,16,16,17,17,18,18,19,19,20,20,21,21,22,22,23,23,24,24,25,25,26,26,27,27,28,28,29,29,30,30,31,31,32,32,33,33,34,34,35,35,36,36,37,37,38,38,39,39,40,40,41,41,42,42,43,43,44,44,45,45,46,46,47,47,49,49,50,50,51,51,52,52,53,53,54,54,55,55,56,56,57,57,58,58,59,59,60,60,61,61,62,62],"right_children":[2,4,6,8,10,12,14,16,18,20,22,24,26,28,30,32,34,36,38,40,42,44,46,48,50,52,54,56,58,60,62,64,66,68,70,72,74,76,78,80,82,84,86,88,90,92,94,96,-1,98,100,102,104,106,108,110,112,114,116,118,120,122,124,-1,-1,-1,-1,-1,-1,-1,-1,-1,-1,-1,-1,-1,-1,-1,-1,-1,-1,-1,-1,-1,-1,-1,-1,-1,-1,-1,-1,-1,-1,-1,-1,-1,-1,-1,-1,-1,-1,-1,-1,-1,-1,-1,-1,-1,-1,-1,-1,-1,-1,-1,-1,-1,-1,-1,-1,-1,-1,-1,-1,-1,-1],"split_conditions":[1E0,2E0,2E0,7.385714E1,4.26E2,0E0,4.26E2,0E0,2.7E1,1.04E-1,2.0528572E2,-9.5084745E-1,7.8E1,-2.2330096E-1,-9.52381E-2,-4.4052863E-1,8E-3,1.31E2,7.8E1,-5.730337E-1,8.16E0,1.8042857E2,8.05E2,7.8E1,-2.990654E-1,8E-3,8.9E1,-9.2743105E-1,1.04E-1,-9.2743105E-1,8.9E1,-6.423841E-1,2.02E3,5.1857143E1,1.08E0,2.26E2,8E-3,1.84E2,3.77E2,-7.9333335E-1,3.5E1,4.2E1,2.71E2,6.57E2,7.17E2,2.2471428E2,2.3857143E2,1E0,-7.1948824E0,2E0,-2.1259843E-1,5E0,3.1666667E0,4E0,8E-3,-9.726776E-1,2E0,3.5E1,4.2E1,-9.726776E-1,3.1546E4,5E0,8E-3,-5.2489753E0,-3.1867728E0,-1.2072645E0,3.7895307E-2,3.4319458E1,3.8669487E1,-4.3203044E0,3.3680317E1,4.2403763E1,3.7237133E1,5.05327E1,4.380646E1,5.4805233E1,6.776498E1,7.273232E1,1.0171959E2,-5.716382E0,-3.3922234E0,-9.231233E-1,4.765773E0,1.3528754E0,7.9971666E0,-3.1354837E0,2.2945084E1,3.5553997E1,2.6445591E1,4.5949955E1,3.386088E1,5.088595E1,6.365155E1,4.0653683E1,5.3733807E1,-8.809401E0,-6.2088976E0,8.259999E-1,-1.505415E0,9.5286196E-1,2.5474575E0,-7.764531E0,-6.950119E0,1.2113289E0,-3.4128835E0,2.2867558E1,4.810703E1,-8.521384E0,1.1085514E1,-6.7118425E0,-4.5209613E0,-5.6720215E-1,-2.2210712E0,1.5299292E-1,6.050874E0,1.9540627E0,8.239613E0,-6.3278947E0,-9.814885E-2,3.7067773E0,1.0945625E1,3.375002E0,-6.8485866E0,-7.498201E0,1.03462515E1],"split_indices":[27,40,40,37,40,45,40,45,15,45,37,45,15,45,45,45,45,33,15,45,45,37,40,15,45,45,25,45,45,45,25,45,32,37,45,34,45,33,25,45,15,15,40,34,34,37,37,20,0,27,45,27,45,18,45,45,27,15,15,45,9,28,45,0,0,0,0,0,0,0,0,0,0,0,0,0,0,0,0,0,0,0,0,0,0,0,0,0,0,0,0,0,0,0,0,0,0,0,0,0,0,0,0,0,0,0,0,0,0,0,0,0,0,0,0,0,0,0,0,0,0,0,0,0,0],"split_type":[0,0,0,0,0,0,0,0,0,0,0,0,0,0,0,0,0,0,0,0,0,0,0,0,0,0,0,0,0,0,0,0,0,0,0,0,0,0,0,0,0,0,0,0,0,0,0,0,0,0,0,0,0,0,0,0,0,0,0,0,0,0,0,0,0,0,0,0,0,0,0,0,0,0,0,0,0,0,0,0,0,0,0,0,0,0,0,0,0,0,0,0,0,0,0,0,0,0,0,0,0,0,0,0,0,0,0,0,0,0,0,0,0,0,0,0,0,0,0,0,0,0,0,0,0],"sum_hessian":[5.552347E6,7.92722E5,4.759625E6,2.59109E5,5.33613E5,1.353397E6,3.406228E6,9.0271E4,1.68838E5,5.25534E5,8.079E3,8.99324E5,4.54073E5,3.151797E6,2.54431E5,4.91E2,8.978E4,1.64605E5,4.233E3,3.83629E5,1.41905E5,5.503E3,2.576E3,8.92624E5,6.7E3,4.51817E5,2.256E3,8.93031E5,2.258766E6,1.89487E5,6.4944E4,2.14E2,2.77E2,3.3308E4,5.6472E4,1.3017E5,3.4435E4,3.494E3,7.39E2,4.3958E4,3.39671E5,1.3749E5,4.415E3,2.816E3,2.687E3,9.7E2,1.606E3,8.89825E5,2.799E3,4.611E3,2.089E3,4.45905E5,5.912E3,9.04E2,1.352E3,5.6192E4,8.36839E5,1.405673E6,8.53093E5,1.89476E5,1.1E1,6.61E2,6.4283E4,8.9E1,1.25E2,2.41E2,3.6E1,1.1598E4,2.171E4,4.83E2,5.5989E4,6.1334E4,6.8836E4,1.2732E4,2.1703E4,2.963E3,5.31E2,6.7E2,6.9E1,1.18E4,3.2158E4,3.34934E5,4.737E3,1.357E5,1.79E3,4.389E3,2.6E1,1.902E3,9.14E2,1.183E3,1.504E3,7.7E2,2E2,1.19E3,4.16E2,7.1E1,8.89754E5,1.572E3,3.039E3,7E2,1.389E3,2.58287E5,1.87618E5,5.357E3,5.55E2,5.62E2,3.42E2,1.349E3,3E0,2.3204E4,3.2988E4,2.5595E5,5.80889E5,1.386079E6,1.9594E4,8.42414E5,1.0679E4,1.89474E5,2E0,7E0,4E0,3.53E2,3.08E2,6.4274E4,9E0],"tree_param":{"num_deleted":"0","num_feature":"46","num_nodes":"125","size_leaf_vector":"1"}},{"base_weights":[3.0107174E-2,1.157766E2,-1.9252195E1,3.5229282E2,7.5020623E-1,-5.87426E1,-3.5778065E0,3.3890552E2,4.2957138E2,-4.7397723E0,3.5670905E2,-5.5482666E1,-6.52161E1,9.3562436E-1,-5.9499695E1,2.9049976E2,3.5712527E2,5.253518E2,3.9733774E2,-3.0184208E1,-7.4060374E-1,3.104084E2,4.0855383E2,-5.5906876E1,1.5855992E0,-6.5867256E1,6.599307E1,-1.7533237E1,8.240669E0,-5.6934628E1,-6.692267E1,2.737289E2,3.7884265E2,3.6743912E2,2.7179898E2,6.5957495E2,5.0613757E2,3.5372537E2,4.8200998E2,-4.5782932E1,-2.3836596E1,-6.404807E0,1.1678839E1,3.490728E2,2.693478E2,4.6422263E2,3.714654E2,-5.5878952E1,-6.4759164E0,-1.0291681E1,1.3555808E1,-6.6822205E1,6.403824E0,2.8049533E2,-7.594271E1,-4.8819946E1,-1.5423318E1,2.1387162E0,1.8297949E1,-5.6942383E1,6.0253624E1,-1.3646476E1,-6.747444E1,2.428484E1,2.9219385E1,3.566529E1,4.5855362E1,3.55955E1,4.623595E1,1.9381773E1,3.0345545E1,6.895549E1,3.8301006E1,4.881806E1,6.299953E1,3.2285637E1,3.795476E1,4.5785786E1,5.9303814E1,-6.158521E0,-4.0145826E0,-3.014929E0,-2.1529663E0,-7.470497E-1,3.0433095E0,1.0795174E0,6.3276424E0,3.0897306E1,4.110969E1,1.8563162E1,2.8721357E1,4.3380535E1,5.348885E1,3.24221E1,4.2845627E1,-5.5883894E0,-3.44837E0,1.0237229E0,-2.3216348E0,6.6840523E-1,2.311773E0,-6.9903407E0,-6.2566648E0,1.0377792E0,-3.0910833E0,1.2736157E1,3.4973484E1,-7.690666E0,1.1957137E1,-4.0134254E0,-6.0082927E0,-5.122611E-1,-1.9969307E0,1.4964001E-1,6.3456697E0,1.7708498E0,8.7599945E0,-5.700992E0,-5.6647377E0,3.1088703E0,1.0069976E1,4.530729E0,-6.5316405E0,-6.749645E0,9.815806E0],"categories":[],"categories_nodes":[],"categories_segments":[],"categories_sizes":[],"default_left":[0,0,0,0,0,0,0,0,0,0,0,0,0,0,0,0,0,0,0,0,0,0,0,0,0,0,0,0,0,0,0,0,0,0,0,0,0,0,0,0,0,0,0,0,0,0,0,0,0,0,0,0,0,0,0,0,0,0,0,0,0,0,0,0,0,0,0,0,0,0,0,0,0,0,0,0,0,0,0,0,0,0,0,0,0,0,0,0,0,0,0,0,0,0,0,0,0,0,0,0,0,0,0,0,0,0,0,0,0,0,0,0,0,0,0,0,0,0,0,0,0,0,0,0,0],"id":6,"left_children":[1,3,5,7,9,11,13,15,17,19,21,23,25,27,29,31,33,35,37,39,41,43,45,47,49,51,53,55,57,59,61,63,65,67,69,71,73,75,77,79,81,83,85,87,89,91,93,95,-1,97,99,101,103,105,107,109,111,113,115,117,119,121,123,-1,-1,-1,-1,-1,-1,-1,-1,-1,-1,-1,-1,-1,-1,-1,-1,-1,-1,-1,-1,-1,-1,-1,-1,-1,-1,-1,-1,-1,-1,-1,-1,-1,-1,-1,-1,-1,-1,-1,-1,-1,-1,-1,-1,-1,-1,-1,-1,-1,-1,-1,-1,-1,-1,-1,-1,-1,-1,-1,-1,-1,-1],"loss_changes":[1.2391338E10,2.1569614E10,2.94588E9,2.6823885E8,1.04241056E9,2.853376E7,8.599064E8,1.9490816E8,1.1804006E8,5.345445E7,1.93216E7,2.1772544E7,3.8698624E7,4.2532102E8,4.840832E6,8.949402E7,1.4127718E8,2.452992E7,1.0566758E8,7.063704E6,3.193495E7,6.7072E6,7.712576E6,2.17344E5,9.4374525E5,3.1102592E7,6.812798E7,5.8981664E7,1.3863184E8,1.75296E5,1.919744E6,2.8912128E7,1.689792E7,1.560658E8,4.2717184E7,9.718784E6,1.8459648E7,1.4959616E7,2.58496E7,1.83576E6,7.37928E5,1.2239819E7,6.4826E6,5.352192E6,3.06064E6,3.041568E6,6.04576E6,9.1904E4,0E0,8.843149E5,2.170735E5,5.827712E6,8.719533E5,9.40264E6,2.63059E5,5.519808E6,3.919664E7,5.5374504E7,3.484464E7,5.12E2,1.2204285E4,2.0469171E6,2.424E5,0E0,0E0,0E0,0E0,0E0,0E0,0E0,0E0,0E0,0E0,0E0,0E0,0E0,0E0,0E0,0E0,0E0,0E0,0E0,0E0,0E0,0E0,0E0,0E0,0E0,0E0,0E0,0E0,0E0,0E0,0E0,0E0,0E0,0E0,0E0,0E0,0E0,0E0,0E0,0E0,0E0,0E0,0E0,0E0,0E0,0E0,0E0,0E0,0E0,0E0,0E0,0E0,0E0,0E0,0E0,0E0,0E0,0E0,0E0,0E0,0E0,0E0],"parents":[2147483647,0,0,1,1,2,2,3,3,4,4,5,5,6,6,7,7,8,8,9,9,10,10,11,11,12,12,13,13,14,14,15,15,16,16,17,17,18,18,19,19,20,20,21,21,22,22,23,23,24,24,25,25,26,26,27,27,28,28,29,29,30,30,31,31,32,32,33,33,34,34,35,35,36,36,37,37,38,38,39,39,40,40,41,41,42,42,43,43,44,44,45,45,46,46,47,47,49,49,50,50,51,51,52,52,53,53,54,54,55,55,56,56,57,57,58,58,59,59,60,60,61,61,62,62],"right_children":[2,4,6,8,10,12,14,16,18,20,22,24,26,28,30,32,34,36,38,40,42,44,46,48,50,52,54,56,58,60,62,64,66,68,70,72,74,76,78,80,82,84,86,88,90,92,94,96,-1,98,100,102,104,106,108,110,112,114,116,118,120,122,124,-1,-1,-1,-1,-1,-1,-1,-1,-1,-1,-1,-1,-1,-1,-1,-1,-1,-1,-1,-1,-1,-1,-1,-1,-1,-1,-1,-1,-1,-1,-1,-1,-1,-1,-1,-1,-1,-1,-1,-1,-1,-1,-1,-1,-1,-1,-1,-1,-1,-1,-1,-1,-1,-1,-1,-1,-1,-1,-1,-1,-1,-1],"split_conditions":[1E0,2E0,2E0,1.423E3,4.26E2,0E0,4.26E2,5.6280334E1,1.1E1,-4.4052863E-1,1.94E2,-9.2743105E-1,7.8E1,-2.2330096E-1,-9.52381E-2,9.071429E1,1E1,9E0,1.737E3,-7.1568626E-1,1.04E-1,2.1326074E2,2.5474283E2,7.8E1,-4.4052863E-1,8E-3,1.5E0,-9.2743105E-1,1.04E-1,-9.726776E-1,8.9E1,4.5529163E1,1.1428571E2,1.16E3,1.203E3,4.12E2,1.737E3,1.556E3,2.058E3,-8.913044E-1,-6.25E-1,2.3E1,3.5E1,1.6871428E2,1.6757143E2,2.1314285E2,2.2014285E2,-9.726776E-1,-6.4759164E0,2E0,-2.1259843E-1,5E0,3.1666667E0,2.195E3,8E-3,2E0,2E0,4.2E1,5.5E1,1.345E3,3.1546E4,2E0,8E-3,2.428484E1,2.9219385E1,3.566529E1,4.5855362E1,3.55955E1,4.623595E1,1.9381773E1,3.0345545E1,6.895549E1,3.8301006E1,4.881806E1,6.299953E1,3.2285637E1,3.795476E1,4.5785786E1,5.9303814E1,-6.158521E0,-4.0145826E0,-3.014929E0,-2.1529663E0,-7.470497E-1,3.0433095E0,1.0795174E0,6.3276424E0,3.0897306E1,4.110969E1,1.8563162E1,2.8721357E1,4.3380535E1,5.348885E1,3.24221E1,4.2845627E1,-5.5883894E0,-3.44837E0,1.0237229E0,-2.3216348E0,6.6840523E-1,2.311773E0,-6.9903407E0,-6.2566648E0,1.0377792E0,-3.0910833E0,1.2736157E1,3.4973484E1,-7.690666E0,1.1957137E1,-4.0134254E0,-6.0082927E0,-5.122611E-1,-1.9969307E0,1.4964001E-1,6.3456697E0,1.7708498E0,8.7599945E0,-5.700992E0,-5.6647377E0,3.1088703E0,1.0069976E1,4.530729E0,-6.5316405E0,-6.749645E0,9.815806E0],"split_indices":[27,40,40,26,40,45,40,39,5,45,37,45,15,45,45,37,5,5,26,45,45,39,39,15,45,45,22,45,45,45,25,39,37,26,26,25,26,26,26,45,45,15,15,37,37,37,37,45,0,27,45,27,45,26,45,27,27,15,15,26,9,29,45,0,0,0,0,0,0,0,0,0,0,0,0,0,0,0,0,0,0,0,0,0,0,0,0,0,0,0,0,0,0,0,0,0,0,0,0,0,0,0,0,0,0,0,0,0,0,0,0,0,0,0,0,0,0,0,0,0,0,0,0,0,0],"split_type":[0,0,0,0,0,0,0,0,0,0,0,0,0,0,0,0,0,0,0,0,0,0,0,0,0,0,0,0,0,0,0,0,0,0,0,0,0,0,0,0,0,0,0,0,0,0,0,0,0,0,0,0,0,0,0,0,0,0,0,0,0,0,0,0,0,0,0,0,0,0,0,0,0,0,0,0,0,0,0,0,0,0,0,0,0,0,0,0,0,0,0,0,0,0,0,0,0,0,0,0,0,0,0,0,0,0,0,0,0,0,0,0,0,0,0,0,0,0,0,0,0,0,0,0,0],"sum_hessian":[5.552023E6,7.92836E5,4.759187E6,2.59419E5,5.33417E5,1.352263E6,3.406924E6,2.21119E5,3.83E4,5.25316E5,8.101E3,8.99368E5,4.52895E5,3.152489E6,2.54435E5,6.0473E4,1.60646E5,9.64E3,2.866E4,7.135E4,4.53966E5,4.283E3,3.818E3,8.92732E5,6.636E3,4.50659E5,2.236E3,8.93503E5,2.258986E6,1.89099E5,6.5336E4,5.0828E4,9.645E3,1.43319E5,1.7327E4,1.203E3,8.437E3,1.892E4,9.74E3,2.0635E4,5.0715E4,3.11774E5,1.42192E5,2.202E3,2.081E3,1.522E3,2.296E3,8.89932E5,2.8E3,3.331E3,3.305E3,4.44782E5,5.877E3,8.9E2,1.346E3,5.6448E4,8.37055E5,1.405962E6,8.53024E5,1.89087E5,1.2E1,6.7E2,6.4666E4,1.9025E4,3.1803E4,7.549E3,2.096E3,1.27855E5,1.5464E4,5.005E3,1.2322E4,1.084E3,1.19E2,7.373E3,1.064E3,8.624E3,1.0296E4,8.004E3,1.736E3,5.423E3,1.5212E4,1.357E4,3.7145E4,3.03009E5,8.765E3,1.39799E5,2.393E3,1.341E3,8.61E2,3.68E2,1.713E3,1.069E3,4.53E2,1.259E3,1.037E3,8.89725E5,2.07E2,1.287E3,2.044E3,1.924E3,1.381E3,2.57979E5,1.86803E5,5.312E3,5.65E2,2.78E2,6.12E2,1.34E3,6E0,3.1873E4,2.4575E4,2.56303E5,5.80752E5,1.391388E6,1.4574E4,8.45831E5,7.193E3,1.53707E5,3.538E4,8E0,4E0,3.13E2,3.57E2,6.4658E4,8E0],"tree_param":{"num_deleted":"0","num_feature":"46","num_nodes":"125","size_leaf_vector":"1"}},{"base_weights":[4.0900283E-3,1.0406701E2,-1.734913E1,3.1657916E2,7.1179223E-1,-5.2849087E1,-3.2419903E0,2.9294974E2,3.564108E2,-4.2736454E0,3.2203772E2,2.3403499E2,-5.2913517E1,-2.0935905E1,2.6694878E1,2.4280605E2,3.0884924E2,3.033845E2,3.7142453E2,-2.2407799E1,2.6436256E1,2.955898E2,3.676345E2,1.0365523E2,7.31144E2,-4.993024E1,-5.8824974E1,-3.7563942E1,-1.079015E1,3.3154457E1,-5.2725365E1,2.2930492E2,2.927654E2,-9.0572014E1,3.110051E2,2.892706E2,3.5282034E2,4.088007E2,3.491264E2,-3.947258E1,-1.1993144E1,1.9469637E1,7.034275E1,2.7604474E2,3.5934772E2,3.4566016E2,4.1771924E2,5.898171E1,8.269825E2,6.142965E2,1.5781676E2,-5.0314075E1,1.6516044E0,-5.9681847E1,6.101684E0,-4.640807E1,-3.202196E1,-7.492976E0,-5.192802E1,2.5668283E1,7.9885185E1,-4.978353E1,-6.1229145E1,1.906237E1,2.4356243E1,2.6984274E1,3.3886944E1,-1.0624619E1,-7.633264E0,3.056817E1,4.2629436E1,2.7340734E1,3.2722286E1,3.258445E1,3.9768764E1,4.0125267E1,5.270822E1,-5.56305E0,3.532607E1,-5.160875E0,-3.1943207E0,-2.035605E0,-3.7054843E-1,8.1066066E-1,3.0324743E0,5.6210513E0,8.997981E0,2.2647657E1,2.9265278E1,3.5081264E1,5.675107E1,4.1105723E0,3.484425E1,4.5897945E1,3.880394E1,1.8347326E1,-7.0438576E0,9.050934E1,-9.422986E0,1.513761E1,7.21704E1,-5.0288987E0,-5.828508E0,-2.0276916E0,3.8460786E0,8.450615E-1,-6.030956E0,-1.374089E0,3.660383E0,-5.902433E0,-4.3257036E0,-2.9782143E0,-5.969228E0,-1.616936E0,1.1994263E-1,-4.976133E0,-5.8285217E0,1.355687E0,3.7223916E0,6.517975E0,1.0029859E1,-4.9786386E0,3.404913E0,1.0910401E0,-6.190263E0],"categories":[],"categories_nodes":[],"categories_segments":[],"categories_sizes":[],"default_left":[0,0,0,0,0,0,0,0,0,0,0,0,0,0,0,0,0,0,0,0,0,0,0,0,0,0,0,0,0,0,0,0,0,0,0,0,0,0,0,0,0,0,0,0,0,0,0,0,0,0,0,0,0,0,0,0,0,0,0,0,0,0,0,0,0,0,0,0,0,0,0,0,0,0,0,0,0,0,0,0,0,0,0,0,0,0,0,0,0,0,0,0,0,0,0,0,0,0,0,0,0,0,0,0,0,0,0,0,0,0,0,0,0,0,0,0,0,0,0,0,0,0,0,0,0],"id":7,"left_children":[1,3,5,7,9,11,13,15,17,19,21,23,25,27,29,31,33,35,37,39,41,43,45,47,49,51,53,55,57,59,61,63,65,67,69,71,73,75,77,79,81,83,85,87,89,91,93,95,97,99,-1,101,103,105,107,109,111,113,115,117,119,121,123,-1,-1,-1,-1,-1,-1,-1,-1,-1,-1,-1,-1,-1,-1,-1,-1,-1,-1,-1,-1,-1,-1,-1,-1,-1,-1,-1,-1,-1,-1,-1,-1,-1,-1,-1,-1,-1,-1,-1,-1,-1,-1,-1,-1,-1,-1,-1,-1,-1,-1,-1,-1,-1,-1,-1,-1,-1,-1,-1,-1,-1,-1],"loss_changes":[1.0025314E10,1.7427767E10,2.3829135E9,2.4425882E8,8.551754E8,2.502272E7,1.803666E9,1.2984832E8,7.684506E7,2.9274963E8,9.726976E6,1.9627352E7,2.3854592E7,3.610516E8,6.4893114E8,2.6398464E7,1.065687E8,1.478464E7,6.264013E7,5.873939E7,5.969627E7,6.339712E6,3.146336E6,7.7711085E6,5.265812E6,1.7801216E7,2.524288E7,3.9748736E7,1.8028464E8,4.0922547E8,2.377104E6,1.6991616E7,8.726784E6,1.403115E5,7.539712E7,9.906432E6,5.600192E6,2.4914432E7,7.898624E7,1.1444592E7,1.4225582E7,2.0776548E7,7.411816E6,3.192864E6,1.948944E6,1.751584E6,9.32592E5,3.7025102E6,1.092683E6,2.724856E6,0E0,1.75616E5,5.362009E6,1.9152512E7,3.5780828E6,1.2417472E7,3.0898336E7,9.280497E7,1.355568E6,1.4111008E8,4.8479744E7,1.8608E4,1.188584E6,0E0,0E0,0E0,0E0,0E0,0E0,0E0,0E0,0E0,0E0,0E0,0E0,0E0,0E0,0E0,0E0,0E0,0E0,0E0,0E0,0E0,0E0,0E0,0E0,0E0,0E0,0E0,0E0,0E0,0E0,0E0,0E0,0E0,0E0,0E0,0E0,0E0,0E0,0E0,0E0,0E0,0E0,0E0,0E0,0E0,0E0,0E0,0E0,0E0,0E0,0E0,0E0,0E0,0E0,0E0,0E0,0E0,0E0,0E0,0E0,0E0,0E0],"parents":[2147483647,0,0,1,1,2,2,3,3,4,4,5,5,6,6,7,7,8,8,9,9,10,10,11,11,12,12,13,13,14,14,15,15,16,16,17,17,18,18,19,19,20,20,21,21,22,22,23,23,24,24,25,25,26,26,27,27,28,28,29,29,30,30,31,31,32,32,33,33,34,34,35,35,36,36,37,37,38,38,39,39,40,40,41,41,42,42,43,43,44,44,45,45,46,46,47,47,48,48,49,49,51,51,52,52,53,53,54,54,55,55,56,56,57,57,58,58,59,59,60,60,61,61,62,62],"right_children":[2,4,6,8,10,12,14,16,18,20,22,24,26,28,30,32,34,36,38,40,42,44,46,48,50,52,54,56,58,60,62,64,66,68,70,72,74,76,78,80,82,84,86,88,90,92,94,96,98,100,-1,102,104,106,108,110,112,114,116,118,120,122,124,-1,-1,-1,-1,-1,-1,-1,-1,-1,-1,-1,-1,-1,-1,-1,-1,-1,-1,-1,-1,-1,-1,-1,-1,-1,-1,-1,-1,-1,-1,-1,-1,-1,-1,-1,-1,-1,-1,-1,-1,-1,-1,-1,-1,-1,-1,-1,-1,-1,-1,-1,-1,-1,-1,-1,-1,-1,-1,-1,-1,-1,-1],"split_conditions":[1E0,2E0,2E0,1.25E2,4.26E2,1E0,1.25E2,5.5457836E1,5.422001E1,1.25E2,1.25E2,4E0,0E0,7.5E1,4.26E2,7.714286E1,-7.936508E-3,7.642857E1,8E-3,7.5E1,2E2,1.33E2,1.28E2,2.5672E2,1.2E1,-9.2743105E-1,8E-3,5E1,4.26E2,2E2,-9.52381E-2,4.2723362E1,1.07E2,7.5E1,1.8E1,1.75E2,1.04E2,2.52E0,1.556962E0,5E1,1E2,1.5E2,2.25E2,1.74E2,3.1E1,8.9E1,1.7962962E0,1.75E2,4.3E-1,7.742857E1,1.5781676E2,7.8E1,1E2,8.9E1,1.5E2,2.5E1,4.26E2,1E2,-9.52381E-2,1.5E2,2.25E2,-9.726776E-1,8.9E1,1.906237E1,2.4356243E1,2.6984274E1,3.3886944E1,-1.0624619E1,-7.633264E0,3.056817E1,4.2629436E1,2.7340734E1,3.2722286E1,3.258445E1,3.9768764E1,4.0125267E1,5.270822E1,-5.56305E0,3.532607E1,-5.160875E0,-3.1943207E0,-2.035605E0,-3.7054843E-1,8.1066066E-1,3.0324743E0,5.6210513E0,8.997981E0,2.2647657E1,2.9265278E1,3.5081264E1,5.675107E1,4.1105723E0,3.484425E1,4.5897945E1,3.880394E1,1.8347326E1,-7.0438576E0,9.050934E1,-9.422986E0,1.513761E1,7.21704E1,-5.0288987E0,-5.828508E0,-2.0276916E0,3.8460786E0,8.450615E-1,-6.030956E0,-1.374089E0,3.660383E0,-5.902433E0,-4.3257036E0,-2.9782143E0,-5.969228E0,-1.616936E0,1.1994263E-1,-4.976133E0,-5.8285217E0,1.355687E0,3.7223916E0,6.517975E0,1.0029859E1,-4.9786386E0,3.404913E0,1.0910401E0,-6.190263E0],"split_indices":[27,40,40,16,40,20,16,39,39,16,16,18,45,16,40,41,45,41,45,16,16,33,33,1,18,45,45,16,40,16,45,39,33,16,15,16,33,22,45,16,16,16,16,41,17,25,45,16,21,41,0,15,16,25,16,16,40,16,45,16,16,45,25,0,0,0,0,0,0,0,0,0,0,0,0,0,0,0,0,0,0,0,0,0,0,0,0,0,0,0,0,0,0,0,0,0,0,0,0,0,0,0,0,0,0,0,0,0,0,0,0,0,0,0,0,0,0,0,0,0,0,0,0,0,0],"split_type":[0,0,0,0,0,0,0,0,0,0,0,0,0,0,0,0,0,0,0,0,0,0,0,0,0,0,0,0,0,0,0,0,0,0,0,0,0,0,0,0,0,0,0,0,0,0,0,0,0,0,0,0,0,0,0,0,0,0,0,0,0,0,0,0,0,0,0,0,0,0,0,0,0,0,0,0,0,0,0,0,0,0,0,0,0,0,0,0,0,0,0,0,0,0,0,0,0,0,0,0,0,0,0,0,0,0,0,0,0,0,0,0,0,0,0,0,0,0,0,0,0,0,0,0,0],"sum_hessian":[5.551646E6,7.9346E5,4.758186E6,2.59628E5,5.33832E5,1.35312E6,3.405066E6,1.62962E5,9.6666E4,5.25677E5,8.155E3,3.03E2,1.352817E6,2.14015E6,1.264916E6,3.9236E4,1.23726E5,2.1335E4,7.5331E4,3.30511E5,1.95166E5,5.166E3,2.989E3,2.41E2,6.2E1,8.99091E5,4.53726E5,8.10995E5,1.329155E6,1.169774E6,9.5142E4,3.0893E4,8.343E3,6.64E2,1.23062E5,1.6602E4,4.733E3,2.8142E4,4.7189E4,1.25262E5,2.05249E5,1.68441E5,2.6725E4,3.958E3,1.208E3,2.083E3,9.06E2,2.28E2,1.3E1,5.6E1,6E0,8.9245E5,6.641E3,4.47816E5,5.91E3,3.12418E5,4.98577E5,1.23053E6,9.8625E4,1.008255E6,1.61519E5,7.0693E4,2.4449E4,8.324E3,2.2569E4,5.577E3,2.766E3,3.13E2,3.51E2,1.17634E5,5.428E3,1.1714E4,4.888E3,2.961E3,1.772E3,2.6458E4,1.684E3,4.77E2,4.6712E4,4.7957E4,7.7305E4,1.0216E5,1.03089E5,8.2296E4,8.6145E4,1.5543E4,1.1182E4,9.97E2,2.961E3,1.163E3,4.5E1,1.9E1,2.064E3,3.73E2,5.33E2,1.16E2,1.12E2,1.2E1,1E0,1.1E1,4.5E1,8.89657E5,2.793E3,4.162E3,2.479E3,4.088E3,4.43728E5,3.581E3,2.329E3,6.2432E4,2.49986E5,4.61243E5,3.7334E4,6.15832E5,6.14698E5,7.3562E4,2.5063E4,4.9229E5,5.15965E5,9.3888E4,6.7631E4,7.0691E4,2E0,2.26E2,2.4223E4],"tree_param":{"num_deleted":"0","num_feature":"46","num_nodes":"125","size_leaf_vector":"1"}},{"base_weights":[-1.5330129E-2,9.3568794E1,-1.5598219E1,2.850104E2,5.429714E-1,-4.7570744E1,-2.90499E0,2.7023965E2,3.4048926E2,-3.8762534E0,2.890966E2,2.1098534E2,-4.763075E1,-1.8836084E1,2.4036121E1,2.8319165E2,1.9995786E2,4.0889172E2,3.029992E2,-2.0160925E1,2.3759523E1,2.5350877E2,3.441745E2,7.441453E1,6.7735565E2,-1.9668058E1,-4.7788654E1,-3.3797024E1,-9.709274E0,2.9830246E1,-4.7440407E1,2.732001E2,3.7039685E2,1.158326E2,2.2535747E2,5.186738E2,3.860504E2,2.5889877E2,3.852724E2,-3.5529808E1,-1.0799374E1,1.3468263E1,4.8123768E1,2.7162506E2,1.8102536E2,3.8170224E2,2.9781683E2,4.3800556E1,7.864015E2,3.1379788E2,8.804379E2,-4.3892548E1,2.1566864E2,-5.4436367E1,-4.7423733E1,-4.1774994E1,-2.8798857E1,-6.735239E0,-4.6741302E1,1.8778748E1,5.577739E1,-2.090797E1,-4.756656E1,2.4127655E1,2.9917067E1,4.770157E1,3.4383602E1,6.448818E0,1.4039762E1,2.5314653E1,1.3586555E1,7.246985E1,5.0501926E1,3.60448E1,4.511273E1,2.2040098E1,2.8755604E1,3.608597E1,4.7293896E1,-4.6414256E0,-2.8749845E0,-1.8310565E0,-3.3544078E-1,7.2911066E-1,2.2767713E0,4.036066E0,8.090632E0,2.3725096E1,3.1159988E1,1.1967686E1,1.9986805E1,3.6327675E1,5.093464E1,2.4953793E1,3.4782566E1,-7.3939834E0,1.4624216E1,8.936724E1,-8.951837E0,4.4622402E1,-3.5812206E1,7.273253E1,1.3435999E2,-5.315514E0,-1.3720535E0,1.777163E1,4.4502132E1,-5.6759477E0,-5.0488443E0,-4.746117E0,5.475536E-2,-5.3111978E0,-3.8940785E0,-2.678807E0,-5.3737755E0,-1.454707E0,1.083396E-1,-3.0773015E0,-4.684799E0,1.2191042E0,2.8643954E0,4.753738E0,9.01271E0,-5.3733025E0,5.3932433E0,-5.5092406E0,-4.7154994E0],"categories":[],"categories_nodes":[],"categories_segments":[],"categories_sizes":[],"default_left":[0,0,0,0,0,0,0,0,0,0,0,0,0,0,0,0,0,0,0,0,0,0,0,0,0,0,0,0,0,0,0,0,0,0,0,0,0,0,0,0,0,0,0,0,0,0,0,0,0,0,0,0,0,0,0,0,0,0,0,0,0,0,0,0,0,0,0,0,0,0,0,0,0,0,0,0,0,0,0,0,0,0,0,0,0,0,0,0,0,0,0,0,0,0,0,0,0,0,0,0,0,0,0,0,0,0,0,0,0,0,0,0,0,0,0,0,0,0,0,0,0,0,0,0,0,0,0],"id":8,"left_children":[1,3,5,7,9,11,13,15,17,19,21,23,25,27,29,31,33,35,37,39,41,43,45,47,49,51,53,55,57,59,61,63,65,67,69,71,73,75,77,79,81,83,85,87,89,91,93,95,97,99,101,103,105,107,109,111,113,115,117,119,121,123,125,-1,-1,-1,-1,-1,-1,-1,-1,-1,-1,-1,-1,-1,-1,-1,-1,-1,-1,-1,-1,-1,-1,-1,-1,-1,-1,-1,-1,-1,-1,-1,-1,-1,-1,-1,-1,-1,-1,-1,-1,-1,-1,-1,-1,-1,-1,-1,-1,-1,-1,-1,-1,-1,-1,-1,-1,-1,-1,-1,-1,-1,-1,-1,-1],"loss_changes":[8.0964685E9,1.4113731E10,1.9315466E9,2.1228544E8,6.8011117E8,2.0993792E7,1.4622441E9,1.8625638E8,1.3960602E8,2.364058E8,1.5681728E7,1.994906E7,5.970176E6,2.9233165E8,5.243013E8,1.5048192E8,6.803571E7,4.8165376E7,1.2761933E8,4.755531E7,4.883551E7,6.373344E6,5.375072E6,5.2839625E6,4.9658E6,4.330789E7,3.259648E6,3.2345088E7,1.4644826E8,3.35805E8,3.16752E5,1.284864E8,5.0138624E7,9.31052E6,6.080755E7,8.970944E6,2.6445568E7,2.5222912E7,2.61152E7,9.232032E6,1.1486692E7,7.865776E6,1.4716184E7,5.300192E6,1.110088E6,3.907312E6,3.331944E6,2.8452692E6,1.0196075E6,2.5622568E6,2.213988E6,1.923988E6,6.092386E6,6.38816E5,2.289152E6,1.003744E7,2.5008576E7,7.517915E7,1.66976E5,5.3372736E7,9.900198E7,1.1108426E6,2.90032E5,0E0,0E0,0E0,0E0,0E0,0E0,0E0,0E0,0E0,0E0,0E0,0E0,0E0,0E0,0E0,0E0,0E0,0E0,0E0,0E0,0E0,0E0,0E0,0E0,0E0,0E0,0E0,0E0,0E0,0E0,0E0,0E0,0E0,0E0,0E0,0E0,0E0,0E0,0E0,0E0,0E0,0E0,0E0,0E0,0E0,0E0,0E0,0E0,0E0,0E0,0E0,0E0,0E0,0E0,0E0,0E0,0E0,0E0,0E0,0E0,0E0,0E0,0E0,0E0],"parents":[2147483647,0,0,1,1,2,2,3,3,4,4,5,5,6,6,7,7,8,8,9,9,10,10,11,11,12,12,13,13,14,14,15,15,16,16,17,17,18,18,19,19,20,20,21,21,22,22,23,23,24,24,25,25,26,26,27,27,28,28,29,29,30,30,31,31,32,32,33,33,34,34,35,35,36,36,37,37,38,38,39,39,40,40,41,41,42,42,43,43,44,44,45,45,46,46,47,47,48,48,49,49,50,50,51,51,52,52,53,53,54,54,55,55,56,56,57,57,58,58,59,59,60,60,61,61,62,62],"right_children":[2,4,6,8,10,12,14,16,18,20,22,24,26,28,30,32,34,36,38,40,42,44,46,48,50,52,54,56,58,60,62,64,66,68,70,72,74,76,78,80,82,84,86,88,90,92,94,96,98,100,102,104,106,108,110,112,114,116,118,120,122,124,126,-1,-1,-1,-1,-1,-1,-1,-1,-1,-1,-1,-1,-1,-1,-1,-1,-1,-1,-1,-1,-1,-1,-1,-1,-1,-1,-1,-1,-1,-1,-1,-1,-1,-1,-1,-1,-1,-1,-1,-1,-1,-1,-1,-1,-1,-1,-1,-1,-1,-1,-1,-1,-1,-1,-1,-1,-1,-1,-1,-1,-1,-1,-1,-1],"split_conditions":[1E0,2E0,2E0,1.301E3,4.26E2,1E0,1.25E2,9E0,1.1E1,1.25E2,1.99E2,4E0,8.9E1,7.5E1,4.26E2,1.042E3,1.048E3,9E0,1.686E3,7.5E1,1.75E2,2.5474283E2,2.7775272E2,2.5672E2,7.83855E1,7.8E1,2.005E3,5E1,4.26E2,1.75E2,8.9E1,1E2,8E0,9.39E2,1.1E1,7E0,1.524E3,1.476E3,1.984E3,5E1,1E2,1.5E2,2.25E2,1.7485715E2,1.7814285E2,2.3057143E2,2.2471428E2,1.4E0,4.3E-1,1E1,1E1,4.4E2,8E0,5E0,4.25E2,2.5E1,4.26E2,1E2,8.9E1,1.5E2,2.25E2,5.73E2,2.005E3,2.4127655E1,2.9917067E1,4.770157E1,3.4383602E1,6.448818E0,1.4039762E1,2.5314653E1,1.3586555E1,7.246985E1,5.0501926E1,3.60448E1,4.511273E1,2.2040098E1,2.8755604E1,3.608597E1,4.7293896E1,-4.6414256E0,-2.8749845E0,-1.8310565E0,-3.3544078E-1,7.2911066E-1,2.2767713E0,4.036066E0,8.090632E0,2.3725096E1,3.1159988E1,1.1967686E1,1.9986805E1,3.6327675E1,5.093464E1,2.4953793E1,3.4782566E1,-7.3939834E0,1.4624216E1,8.936724E1,-8.951837E0,4.4622402E1,-3.5812206E1,7.273253E1,1.3435999E2,-5.315514E0,-1.3720535E0,1.777163E1,4.4502132E1,-5.6759477E0,-5.0488443E0,-4.746117E0,5.475536E-2,-5.3111978E0,-3.8940785E0,-2.678807E0,-5.3737755E0,-1.454707E0,1.083396E-1,-3.0773015E0,-4.684799E0,1.2191042E0,2.8643954E0,4.753738E0,9.01271E0,-5.3733025E0,5.3932433E0,-5.5092406E0,-4.7154994E0],"split_indices":[27,40,40,26,40,20,16,5,5,16,37,18,25,16,40,26,26,5,26,16,16,39,39,1,39,15,32,16,40,16,25,16,5,26,5,5,26,26,26,16,16,16,16,37,37,37,37,22,21,18,5,26,18,27,33,16,40,16,25,16,16,26,32,0,0,0,0,0,0,0,0,0,0,0,0,0,0,0,0,0,0,0,0,0,0,0,0,0,0,0,0,0,0,0,0,0,0,0,0,0,0,0,0,0,0,0,0,0,0,0,0,0,0,0,0,0,0,0,0,0,0,0,0,0,0,0,0],"split_type":[0,0,0,0,0,0,0,0,0,0,0,0,0,0,0,0,0,0,0,0,0,0,0,0,0,0,0,0,0,0,0,0,0,0,0,0,0,0,0,0,0,0,0,0,0,0,0,0,0,0,0,0,0,0,0,0,0,0,0,0,0,0,0,0,0,0,0,0,0,0,0,0,0,0,0,0,0,0,0,0,0,0,0,0,0,0,0,0,0,0,0,0,0,0,0,0,0,0,0,0,0,0,0,0,0,0,0,0,0,0,0,0,0,0,0,0,0,0,0,0,0,0,0,0,0,0,0],"sum_hessian":[5.551947E6,7.92504E5,4.759443E6,2.59162E5,5.33342E5,1.35255E6,3.406893E6,2.04675E5,5.4487E4,5.25298E5,8.044E3,3.13E2,1.352237E6,2.140909E6,1.265984E6,1.72823E5,3.1852E4,1.9287E4,3.52E4,3.3053E5,1.94768E5,4.89E3,3.154E3,2.43E2,7E1,7.594E3,1.344643E6,8.11186E5,1.329723E6,1.171055E6,9.4929E4,1.55061E5,1.7762E4,7.388E3,2.4464E4,3.318E3,1.5969E4,2.2919E4,1.2281E4,1.25119E5,2.05411E5,1.36931E5,5.7837E4,3.91E3,9.8E2,1.739E3,1.415E3,2.34E2,9E0,2.6E1,4.4E1,6.886E3,7.08E2,6.9965E4,1.274678E6,3.12451E5,4.98735E5,1.230873E6,9.885E4,8.21262E5,3.49793E5,4.5E2,9.4479E4,6.9563E4,8.5498E4,3.539E3,1.4223E4,2.392E3,4.996E3,1.8666E4,5.798E3,2.03E2,3.115E3,1.1465E4,4.504E3,9.784E3,1.3135E4,9.61E3,2.671E3,4.8021E4,7.7098E4,1.0225E5,1.03161E5,8.2279E4,5.4652E4,4.6765E4,1.1072E4,2.106E3,1.804E3,2.32E2,7.48E2,1.523E3,2.16E2,7.23E2,6.92E2,1.09E2,1.25E2,8E0,1E0,2.2E1,4E0,3.5E1,9E0,5.268E3,1.618E3,6.09E2,9.9E1,4.4038E4,2.5927E4,1.273684E6,9.94E2,6.2486E4,2.49965E5,4.61525E5,3.721E4,6.15704E5,6.15169E5,6.58E2,9.8192E4,4.92432E5,3.2883E5,2.82119E5,6.7674E4,3.13E2,1.37E2,4.892E3,8.9587E4],"tree_param":{"num_deleted":"0","num_feature":"46","num_nodes":"127","size_leaf_vector":"1"}},{"base_weights":[-2.4710279E-2,8.419055E1,-1.4047483E1,2.5641772E2,5.474601E-1,-4.2813953E1,-2.6164987E0,2.4272331E2,3.0632864E2,-3.477947E0,2.606999E2,-4.0194763E1,-4.8003166E1,-1.6953922E1,2.1629633E1,2.2855722E2,2.9169647E2,2.6758224E2,3.23401E2,-1.8141174E1,2.143662E1,2.3162302E2,3.160774E2,-4.0539726E1,5.5270896E0,-4.851959E1,5.4475025E1,-3.0426195E1,-8.737795E0,2.6841196E1,-4.2706432E1,2.3955807E2,1.6332074E2,3.9051825E2,2.7126297E2,2.2677316E2,2.8568008E2,3.59563E2,3.014723E2,-3.1970932E1,-9.713111E0,1.5688254E1,5.753015E1,2.5388289E2,1.8088408E2,3.871678E2,2.9187787E2,-4.0516678E1,-4.776631E1,-1.3902323E1,3.9011925E1,-4.9304287E1,1.0312159E1,2.2778096E2,-5.792482E1,-3.7598366E1,-2.593213E1,-6.0598454E0,-4.2054996E1,2.068967E1,6.52757E1,-4.008735E1,-5.024864E1,1.9640799E1,2.5641256E1,9.383853E0,1.8628778E1,4.415562E1,3.5494278E1,2.4588116E1,3.485888E1,2.1420357E1,2.6352919E1,3.0206867E1,2.5663572E1,3.5251038E1,4.639969E1,-1.2452286E1,3.0434177E1,-4.1799655E0,-2.5873034E0,-1.6461884E0,-3.015283E-1,6.555633E-1,2.4433014E0,5.1361337E0,9.12218E0,2.1745808E1,2.965752E1,1.2803098E1,1.9989607E1,4.3931583E1,3.4696938E1,2.7229452E1,3.6818336E1,-6.0648437E0,-4.051505E0,-7.3863025E0,-4.771255E0,-2.6315012E0,3.7383494E-1,2.8583307E0,7.921556E0,-5.2019434E0,-4.5558577E0,-1.397936E-1,5.229623E0,7.0784783E0,2.8944386E1,-5.8448343E0,9.794299E0,-3.8306916E0,5.3384274E-1,-2.4118547E0,-4.8341413E0,-1.309162E0,9.7740345E-2,-4.0105734E0,-4.777611E0,1.0974422E0,2.994538E0,5.866155E0,1.0028464E1,-4.009143E0,4.167684E0,6.802047E-1,-5.078607E0],"categories":[],"categories_nodes":[],"categories_segments":[],"categories_sizes":[],"default_left":[0,0,0,0,0,0,0,0,0,0,0,0,0,0,0,0,0,0,0,0,0,0,0,0,0,0,0,0,0,0,0,0,0,0,0,0,0,0,0,0,0,0,0,0,0,0,0,0,0,0,0,0,0,0,0,0,0,0,0,0,0,0,0,0,0,0,0,0,0,0,0,0,0,0,0,0,0,0,0,0,0,0,0,0,0,0,0,0,0,0,0,0,0,0,0,0,0,0,0,0,0,0,0,0,0,0,0,0,0,0,0,0,0,0,0,0,0,0,0,0,0,0,0,0,0,0,0],"id":9,"left_children":[1,3,5,7,9,11,13,15,17,19,21,23,25,27,29,31,33,35,37,39,41,43,45,47,49,51,53,55,57,59,61,63,65,67,69,71,73,75,77,79,81,83,85,87,89,91,93,95,97,99,101,103,105,107,109,111,113,115,117,119,121,123,125,-1,-1,-1,-1,-1,-1,-1,-1,-1,-1,-1,-1,-1,-1,-1,-1,-1,-1,-1,-1,-1,-1,-1,-1,-1,-1,-1,-1,-1,-1,-1,-1,-1,-1,-1,-1,-1,-1,-1,-1,-1,-1,-1,-1,-1,-1,-1,-1,-1,-1,-1,-1,-1,-1,-1,-1,-1,-1,-1,-1,-1,-1,-1,-1],"loss_changes":[6.557085E9,1.1417528E10,1.5651914E9,1.770158E8,5.586779E8,1.8395136E7,1.1841293E9,1.4098227E8,3.681075E7,1.9192837E8,1.3016128E7,1.4188416E7,2.4030656E7,2.3693728E8,4.244027E8,1.1313613E8,9.199693E7,1.2539392E7,3.0591232E7,3.8547536E7,4.038299E7,5.978496E6,4.69712E6,1.46816E5,4.383572E6,2.0855808E7,4.436815E7,2.6136E7,1.1863412E8,2.7684013E8,1.871632E6,9.808998E7,3.6301376E7,1.402944E7,7.41033E7,2.36816E6,5.548288E6,1.0596352E7,2.9504768E7,7.5044E6,9.28858E6,1.3408928E7,5.552888E6,5.697008E6,1.6123E6,1.329632E6,3.02288E6,2.6752E4,4.5E2,9.3377875E5,1.03500575E6,4.531584E6,2.9238405E6,8.65354E6,1.18496E5,9.503456E6,2.0259456E7,6.0902132E7,1.10128E6,9.076368E7,3.740192E7,2.5136E4,7.4982E5,0E0,0E0,0E0,0E0,0E0,0E0,0E0,0E0,0E0,0E0,0E0,0E0,0E0,0E0,0E0,0E0,0E0,0E0,0E0,0E0,0E0,0E0,0E0,0E0,0E0,0E0,0E0,0E0,0E0,0E0,0E0,0E0,0E0,0E0,0E0,0E0,0E0,0E0,0E0,0E0,0E0,0E0,0E0,0E0,0E0,0E0,0E0,0E0,0E0,0E0,0E0,0E0,0E0,0E0,0E0,0E0,0E0,0E0,0E0,0E0,0E0,0E0,0E0,0E0],"parents":[2147483647,0,0,1,1,2,2,3,3,4,4,5,5,6,6,7,7,8,8,9,9,10,10,11,11,12,12,13,13,14,14,15,15,16,16,17,17,18,18,19,19,20,20,21,21,22,22,23,23,24,24,25,25,26,26,27,27,28,28,29,29,30,30,31,31,32,32,33,33,34,34,35,35,36,36,37,37,38,38,39,39,40,40,41,41,42,42,43,43,44,44,45,45,46,46,47,47,48,48,49,49,50,50,51,51,52,52,53,53,54,54,55,55,56,56,57,57,58,58,59,59,60,60,61,61,62,62],"right_children":[2,4,6,8,10,12,14,16,18,20,22,24,26,28,30,32,34,36,38,40,42,44,46,48,50,52,54,56,58,60,62,64,66,68,70,72,74,76,78,80,82,84,86,88,90,92,94,96,98,100,102,104,106,108,110,112,114,116,118,120,122,124,126,-1,-1,-1,-1,-1,-1,-1,-1,-1,-1,-1,-1,-1,-1,-1,-1,-1,-1,-1,-1,-1,-1,-1,-1,-1,-1,-1,-1,-1,-1,-1,-1,-1,-1,-1,-1,-1,-1,-1,-1,-1,-1,-1,-1,-1,-1,-1,-1,-1,-1,-1,-1,-1,-1,-1,-1,-1,-1,-1,-1,-1,-1,-1,-1],"split_conditions":[1E0,2E0,2E0,1.5E2,4.26E2,0E0,1.25E2,1.247E3,7.028571E1,1.25E2,2.03E2,-9.5084745E-1,7.8E1,7.5E1,4.26E2,9E0,1E1,4.9859325E1,8E-3,7.5E1,2E2,2.429952E2,2.444919E2,7.8E1,1E2,8E-3,1.5E0,5E1,4.26E2,2E2,-9.52381E-2,4.43E2,1.025E3,9E0,1.67E3,1.142E3,4.9714287E1,1.5E1,1.4150944E0,5E1,1E2,1.5E2,2.5E2,1.7485715E2,1.8042857E2,3.1666667E0,2.3857143E2,1E0,8.9E1,7.5E1,1.5E2,5E0,1.75E2,2.058E3,8E-3,3.1E1,4.26E2,1E2,-2.015504E-1,1.5E2,2.5E2,-9.726776E-1,8.9E1,1.9640799E1,2.5641256E1,9.383853E0,1.8628778E1,4.415562E1,3.5494278E1,2.4588116E1,3.485888E1,2.1420357E1,2.6352919E1,3.0206867E1,2.5663572E1,3.5251038E1,4.639969E1,-1.2452286E1,3.0434177E1,-4.1799655E0,-2.5873034E0,-1.6461884E0,-3.015283E-1,6.555633E-1,2.4433014E0,5.1361337E0,9.12218E0,2.1745808E1,2.965752E1,1.2803098E1,1.9989607E1,4.3931583E1,3.4696938E1,2.7229452E1,3.6818336E1,-6.0648437E0,-4.051505E0,-7.3863025E0,-4.771255E0,-2.6315012E0,3.7383494E-1,2.8583307E0,7.921556E0,-5.2019434E0,-4.5558577E0,-1.397936E-1,5.229623E0,7.0784783E0,2.8944386E1,-5.8448343E0,9.794299E0,-3.8306916E0,5.3384274E-1,-2.4118547E0,-4.8341413E0,-1.309162E0,9.7740345E-2,-4.0105734E0,-4.777611E0,1.0974422E0,2.994538E0,5.866155E0,1.0028464E1,-4.009143E0,4.167684E0,6.802047E-1,-5.078607E0],"split_indices":[27,40,40,16,40,45,16,26,37,16,37,45,15,16,40,5,5,39,45,16,16,39,39,15,16,45,22,16,40,16,45,26,26,5,26,26,41,15,45,16,16,16,16,37,37,45,37,20,25,16,16,27,16,26,45,15,40,16,45,16,16,45,25,0,0,0,0,0,0,0,0,0,0,0,0,0,0,0,0,0,0,0,0,0,0,0,0,0,0,0,0,0,0,0,0,0,0,0,0,0,0,0,0,0,0,0,0,0,0,0,0,0,0,0,0,0,0,0,0,0,0,0,0,0,0,0,0],"split_type":[0,0,0,0,0,0,0,0,0,0,0,0,0,0,0,0,0,0,0,0,0,0,0,0,0,0,0,0,0,0,0,0,0,0,0,0,0,0,0,0,0,0,0,0,0,0,0,0,0,0,0,0,0,0,0,0,0,0,0,0,0,0,0,0,0,0,0,0,0,0,0,0,0,0,0,0,0,0,0,0,0,0,0,0,0,0,0,0,0,0,0,0,0,0,0,0,0,0,0,0,0,0,0,0,0,0,0,0,0,0,0,0,0,0,0,0,0,0,0,0,0,0,0,0,0,0,0],"sum_hessian":[5.552467E6,7.92574E5,4.759893E6,2.59089E5,5.33485E5,1.353574E6,3.406319E6,2.03311E5,5.5778E4,5.25357E5,8.128E3,8.99547E5,4.54027E5,2.140551E6,1.265768E6,1.577E5,4.5611E4,1.7065E4,3.8713E4,3.30717E5,1.9464E5,5.333E3,2.795E3,8.92811E5,6.736E3,4.51751E5,2.276E3,8.10895E5,1.329656E6,1.170918E6,9.485E4,1.34942E5,2.2758E4,7.812E3,3.7799E4,5.247E3,1.1818E4,1.4608E4,2.4105E4,1.25227E5,2.0549E5,1.67901E5,2.6739E4,3.704E3,1.629E3,7.06E2,2.089E3,8.89979E5,2.832E3,4.263E3,2.473E3,4.45805E5,5.946E3,8.95E2,1.381E3,3.1237E5,4.98525E5,1.230734E6,9.8922E4,1.009368E6,1.6155E5,7.0407E4,2.4443E4,3.7907E4,9.7035E4,5.655E3,1.7103E4,3.204E3,4.608E3,2.8461E4,9.338E3,3.915E3,1.332E3,7.549E3,4.269E3,1.3688E4,9.2E2,1.61E2,2.3944E4,4.7944E4,7.7283E4,1.02355E5,1.03135E5,8.213E4,8.5771E4,2.2603E4,4.136E3,2.002E3,1.702E3,4.33E2,1.196E3,3.03E2,4.03E2,1.666E3,4.23E2,6.9E1,8.8991E5,3E0,2.829E3,2.502E3,1.761E3,1.965E3,5.08E2,2.5845E5,1.87355E5,4.65E3,1.296E3,2.53E2,6.42E2,1.377E3,4E0,3.07299E5,5.071E3,4.61202E5,3.7323E4,6.15606E5,6.15128E5,7.3789E4,2.5133E4,4.9246E5,5.16908E5,1.35881E5,2.5669E4,7.0404E4,3E0,2.28E2,2.4215E4],"tree_param":{"num_deleted":"0","num_feature":"46","num_nodes":"127","size_leaf_vector":"1"}},{"base_weights":[-1.1571027E-2,7.57976E1,-1.2632127E1,2.3094255E2,4.7428572E-1,-3.8525154E1,-2.3502865E0,2.1976907E2,2.8213687E2,-3.1491842E0,2.3323741E2,1.8415773E2,-3.857551E1,6.230583E-1,-3.9225292E1,2.277208E2,1.4808826E2,3.4110324E2,2.4618959E2,-6.725993E0,6.490542E0,1.9536298E2,2.6890527E2,7.2360634E1,6.142265E2,-3.6173275E1,-4.3347164E1,-1.19097595E1,4.8087673E0,-3.7296165E1,-4.4821484E1,1.16455154E2,2.33312E2,8.306558E1,1.6974501E2,4.5215097E2,3.2679907E2,2.1538722E2,3.2425903E2,-2.2029518E1,-4.871959E0,8.187217E0,-1.7639532E1,2.2555208E2,1.6727728E2,3.4021262E2,2.5326572E2,3.9069576E1,6.609118E2,2.0214534E2,7.3879047E2,-3.6484055E1,4.951419E0,-4.403861E1,9.051783E0,-3.612371E1,-1.0632752E1,2.3883877E0,1.3247084E1,-3.730215E1,6.8920906E1,-4.7893305E0,-4.522541E1,5.8277783E0,1.4476455E1,2.2502966E1,2.9977667E1,1.0248091E1,1.9786276E0,2.0495825E1,1.161597E1,4.7005444E1,2.1433062E1,3.1352753E1,4.4101307E1,1.828533E1,2.3925447E1,3.1190893E1,4.6061794E1,-4.0669727E0,-1.8951925E0,-5.4354805E-1,2.438453E0,7.570135E-1,4.4969306E0,-1.9766486E0,2.6025122E1,1.9123018E1,2.8252012E1,1.1408665E1,1.8288527E1,3.229228E1,4.0188934E1,2.1989523E1,2.9575226E1,-3.1354017E0,1.7585646E1,7.307514E1,-8.858169E0,-1.17932825E1,5.369651E1,7.941406E1,-6.8596177E0,-3.87795E0,-3.6474893E0,-3.998749E-1,1.434868E0,6.279489E-1,-4.450388E0,1.2887033E0,-2.6966894E0,-3.4568527E0,-7.4064507E0,-3.7388822E-1,-1.4135838E0,1.7049901E-1,2.9416587E0,1.2584134E0,4.3342505E0,-3.730262E0,4.6405512E-1,3.270911E0,1.05833235E1,4.4160724E0,-4.9015937E0,-4.5247893E0,1.042988E1],"categories":[],"categories_nodes":[],"categories_segments":[],"categories_sizes":[],"default_left":[0,0,0,0,0,0,0,0,0,0,0,0,0,0,0,0,0,0,0,0,0,0,0,0,0,0,0,0,0,0,0,0,0,0,0,0,0,0,0,0,0,0,0,0,0,0,0,0,0,0,0,0,0,0,0,0,0,0,0,0,0,0,0,0,0,0,0,0,0,0,0,0,0,0,0,0,0,0,0,0,0,0,0,0,0,0,0,0,0,0,0,0,0,0,0,0,0,0,0,0,0,0,0,0,0,0,0,0,0,0,0,0,0,0,0,0,0,0,0,0,0,0,0,0,0,0,0],"id":10,"left_children":[1,3,5,7,9,11,13,15,17,19,21,23,25,27,29,31,33,35,37,39,41,43,45,47,49,51,53,55,57,59,61,63,65,67,69,71,73,75,77,79,81,83,85,87,89,91,93,95,97,99,101,103,105,107,109,111,113,115,117,119,121,123,125,-1,-1,-1,-1,-1,-1,-1,-1,-1,-1,-1,-1,-1,-1,-1,-1,-1,-1,-1,-1,-1,-1,-1,-1,-1,-1,-1,-1,-1,-1,-1,-1,-1,-1,-1,-1,-1,-1,-1,-1,-1,-1,-1,-1,-1,-1,-1,-1,-1,-1,-1,-1,-1,-1,-1,-1,-1,-1,-1,-1,-1,-1,-1,-1],"loss_changes":[5.31167E9,9.259299E9,1.2670915E9,1.4806733E8,4.4986058E8,1.5175808E7,3.7351472E8,1.2112794E8,9.824794E7,1.8108896E7,1.0992416E7,1.4668169E7,1.5501056E7,1.6537509E8,2.74256E6,1.1900723E8,2.9880128E7,2.7756416E7,6.92439E7,1.0868836E7,5.8194015E6,3.327504E6,4.606656E6,4.75499E6,3.084476E6,1.1497344E7,1.6408384E7,2.4404808E7,4.826609E7,1.22736E5,1.053392E6,1.5072824E7,1.0022298E8,6.51686E6,3.002336E7,8.423392E6,2.345664E7,1.6007936E7,1.3586368E7,2.373878E6,5.633246E6,3.01392E6,5.5244695E6,3.680496E6,1.689344E6,6.74272E5,4.833472E6,2.2403755E6,7.45208E5,1.7780218E6,2.199546E6,1.728E4,5.676118E5,1.046464E7,8.1523925E5,2.330432E6,1.8105744E7,3.392121E7,1.0509136E7,3.888E3,1.124157E4,1.4136759E6,2.2156E5,0E0,0E0,0E0,0E0,0E0,0E0,0E0,0E0,0E0,0E0,0E0,0E0,0E0,0E0,0E0,0E0,0E0,0E0,0E0,0E0,0E0,0E0,0E0,0E0,0E0,0E0,0E0,0E0,0E0,0E0,0E0,0E0,0E0,0E0,0E0,0E0,0E0,0E0,0E0,0E0,0E0,0E0,0E0,0E0,0E0,0E0,0E0,0E0,0E0,0E0,0E0,0E0,0E0,0E0,0E0,0E0,0E0,0E0,0E0,0E0,0E0,0E0,0E0,0E0],"parents":[2147483647,0,0,1,1,2,2,3,3,4,4,5,5,6,6,7,7,8,8,9,9,10,10,11,11,12,12,13,13,14,14,15,15,16,16,17,17,18,18,19,19,20,20,21,21,22,22,23,23,24,24,25,25,26,26,27,27,28,28,29,29,30,30,31,31,32,32,33,33,34,34,35,35,36,36,37,37,38,38,39,39,40,40,41,41,42,42,43,43,44,44,45,45,46,46,47,47,48,48,49,49,50,50,51,51,52,52,53,53,54,54,55,55,56,56,57,57,58,58,59,59,60,60,61,61,62,62],"right_children":[2,4,6,8,10,12,14,16,18,20,22,24,26,28,30,32,34,36,38,40,42,44,46,48,50,52,54,56,58,60,62,64,66,68,70,72,74,76,78,80,82,84,86,88,90,92,94,96,98,100,102,104,106,108,110,112,114,116,118,120,122,124,126,-1,-1,-1,-1,-1,-1,-1,-1,-1,-1,-1,-1,-1,-1,-1,-1,-1,-1,-1,-1,-1,-1,-1,-1,-1,-1,-1,-1,-1,-1,-1,-1,-1,-1,-1,-1,-1,-1,-1,-1,-1,-1,-1,-1,-1,-1,-1,-1,-1,-1,-1,-1,-1,-1,-1,-1,-1,-1,-1,-1,-1,-1,-1,-1],"split_conditions":[1E0,2E0,2E0,1.36E3,4.26E2,1E0,4.26E2,1E1,1.2E1,1.04E-1,1.91E2,4E0,0E0,-2.990654E-1,-9.52381E-2,3.04E2,1.136E3,9E0,1.757E3,-5.859375E-1,4.133333E0,6.33E2,6.98E2,2.5672E2,7.985714E1,-9.5084745E-1,8E-3,-9.5084745E-1,5.625E-1,-9.2743105E-1,8.9E1,2.72E2,1.124E3,1.2E1,1.2E1,4.12E2,1.757E3,1.524E3,2.195E3,-8.7593055E-1,2.8E1,3.1E1,2.71E2,1.6571428E2,1.6971428E2,2.1014285E2,2.1642857E2,1.05E0,4.3E-1,3.5740015E2,1.2E1,8.9E1,-4.4052863E-1,8.9E1,3.1666667E0,2.71E2,2E0,5.2E1,2.5E1,-9.726776E-1,-2.524272E-1,2E0,8E-3,5.8277783E0,1.4476455E1,2.2502966E1,2.9977667E1,1.0248091E1,1.9786276E0,2.0495825E1,1.161597E1,4.7005444E1,2.1433062E1,3.1352753E1,4.4101307E1,1.828533E1,2.3925447E1,3.1190893E1,4.6061794E1,-4.0669727E0,-1.8951925E0,-5.4354805E-1,2.438453E0,7.570135E-1,4.4969306E0,-1.9766486E0,2.6025122E1,1.9123018E1,2.8252012E1,1.1408665E1,1.8288527E1,3.229228E1,4.0188934E1,2.1989523E1,2.9575226E1,-3.1354017E0,1.7585646E1,7.307514E1,-8.858169E0,-1.17932825E1,5.369651E1,7.941406E1,-6.8596177E0,-3.87795E0,-3.6474893E0,-3.998749E-1,1.434868E0,6.279489E-1,-4.450388E0,1.2887033E0,-2.6966894E0,-3.4568527E0,-7.4064507E0,-3.7388822E-1,-1.4135838E0,1.7049901E-1,2.9416587E0,1.2584134E0,4.3342505E0,-3.730262E0,4.6405512E-1,3.270911E0,1.05833235E1,4.4160724E0,-4.9015937E0,-4.5247893E0,1.042988E1],"split_indices":[27,40,40,26,40,20,40,5,5,45,37,18,45,45,45,26,26,5,26,45,45,34,40,1,41,45,45,45,45,45,25,26,26,5,5,25,26,26,26,45,18,18,40,37,37,37,37,8,21,0,5,25,45,25,45,40,27,29,18,45,45,29,45,0,0,0,0,0,0,0,0,0,0,0,0,0,0,0,0,0,0,0,0,0,0,0,0,0,0,0,0,0,0,0,0,0,0,0,0,0,0,0,0,0,0,0,0,0,0,0,0,0,0,0,0,0,0,0,0,0,0,0,0,0,0,0,0],"split_type":[0,0,0,0,0,0,0,0,0,0,0,0,0,0,0,0,0,0,0,0,0,0,0,0,0,0,0,0,0,0,0,0,0,0,0,0,0,0,0,0,0,0,0,0,0,0,0,0,0,0,0,0,0,0,0,0,0,0,0,0,0,0,0,0,0,0,0,0,0,0,0,0,0,0,0,0,0,0,0,0,0,0,0,0,0,0,0,0,0,0,0,0,0,0,0,0,0,0,0,0,0,0,0,0,0,0,0,0,0,0,0,0,0,0,0,0,0,0,0,0,0,0,0,0,0,0,0],"sum_hessian":[5.55176E6,7.92338E5,4.759422E6,2.58957E5,5.33381E5,1.352751E6,3.406671E6,2.12568E5,4.6389E4,5.25206E5,8.175E3,3.05E2,1.352446E6,3.152478E6,2.54193E5,1.9134E5,2.1228E4,1.7566E4,2.8823E4,3.83069E5,1.42137E5,3.968E3,4.207E3,2.43E2,6.2E1,8.99574E5,4.52872E5,7.89265E5,2.363213E6,1.89036E5,6.5157E4,9.156E3,1.82184E5,5.305E3,1.5923E4,2.001E3,1.5565E4,2.0671E4,8.152E3,4.1393E4,3.41676E5,1.328E5,9.337E3,1.909E3,2.059E3,7.53E2,3.454E3,2.31E2,1.2E1,1.5E1,4.7E1,8.92827E5,6.747E3,4.46974E5,5.898E3,3.9538E4,7.49727E5,1.836459E6,5.26754E5,1.89026E5,1E1,6.51E2,6.4506E4,2.998E3,6.158E3,1.62001E5,2.0183E4,4.059E3,1.246E3,9.607E3,6.316E3,1.86E3,1.41E2,1.3948E4,1.617E3,8.751E3,1.192E4,7.478E3,6.74E2,5.864E3,3.5529E4,3.3522E5,6.456E3,1.3061E5,2.19E3,9.267E3,7E1,1.194E3,7.15E2,4.69E2,1.59E3,5.93E2,1.6E2,1.938E3,1.516E3,1.53E2,7.8E1,1.1E1,1E0,8E0,7E0,4.4E1,3E0,3.533E3,8.89294E5,3.456E3,3.291E3,4.095E3,4.42879E5,5.331E3,5.67E2,3.7983E4,1.555E3,2.52609E5,4.97118E5,1.791171E6,4.5288E4,5.15402E5,1.1352E4,1.89024E5,2E0,6E0,4E0,3.09E2,3.42E2,6.4497E4,9E0],"tree_param":{"num_deleted":"0","num_feature":"46","num_nodes":"127","size_leaf_vector":"1"}},{"base_weights":[3.2265656E-2,6.845386E1,-1.1365781E1,5.6521725E1,1.4816199E2,-2.0392887E1,3.9131353E0,1.4567844E2,4.0088406E1,1.19127E2,1.6470895E2,-2.8895088E1,-1.52077055E1,-2.093621E0,1.7990892E1,1.1751234E2,1.6261383E2,3.0801086E1,7.693425E1,1.4276753E2,7.839959E1,2.2054926E2,1.5188824E2,-2.9213924E1,1.9661356E1,-1.554249E1,3.5552906E1,-5.5605364E0,3.105777E0,1.3544256E1,3.6517715E1,1.412213E2,7.859415E1,2.224984E2,1.4999261E2,7.312067E1,2.4009586E1,1.3068623E2,6.9797745E1,1.14235344E2,1.8152771E2,5.16133E1,9.435668E1,1.9771107E2,2.5852698E2,9.618172E1,1.6122612E2,-3.3644638E1,-2.6433586E1,1.493299E2,1.5308531E1,-1.9669653E1,-1.141902E1,1.9503363E2,2.9992592E1,-6.1421137E0,2.2501995E1,2.518284E0,3.1432678E1,3.0073109E0,1.5395913E1,3.2562298E1,6.231673E1,1.0893573E1,1.7871166E1,5.2264256E0,9.730678E0,2.0212421E1,2.5966711E1,1.6472197E1,1.1505402E1,4.826345E0,1.6195997E1,5.197351E-1,3.159148E0,1.056697E1,2.3539833E1,6.200806E0,9.718949E0,1.3697059E1,7.347631E0,1.5364734E1,2.0140858E1,6.979909E0,3.4060764E0,6.3047013E0,1.098378E1,2.208246E1,1.6182247E1,2.6583082E1,2.0126255E0,1.3191899E1,7.373751E0,2.0548437E1,1.4574645E1,-4.0383677E0,-3.1962624E0,-2.724342E0,-1.8068469E0,8.665248E0,3.1325745E1,8.398051E-2,3.0669324E0,-2.0574226E0,-1.1924309E0,-1.0009556E0,-1.6912403E0,1.5449756E1,4.5386654E1,1.5632428E0,4.5209823E0,-4.3964466E-1,-1.237893E0,1.4402697E0,6.5025735E0,4.3807927E-1,-3.4505725E-1,2.4149845E0,6.8605094E0,-2.1927579E-1,3.7868786E0,1.5120839E0,9.1237335E0,1.7152185E0,3.5132415E0,5.90082E0,9.271693E0],"categories":[],"categories_nodes":[],"categories_segments":[],"categories_sizes":[],"default_left":[0,0,0,0,0,0,0,0,0,0,0,0,0,0,0,0,0,0,0,0,0,0,0,0,0,0,0,0,0,0,0,0,0,0,0,0,0,0,0,0,0,0,0,0,0,0,0,0,0,0,0,0,0,0,0,0,0,0,0,0,0,0,0,0,0,0,0,0,0,0,0,0,0,0,0,0,0,0,0,0,0,0,0,0,0,0,0,0,0,0,0,0,0,0,0,0,0,0,0,0,0,0,0,0,0,0,0,0,0,0,0,0,0,0,0,0,0,0,0,0,0,0,0,0,0,0,0],"id":11,"left_children":[1,3,5,7,9,11,13,15,17,19,21,23,25,27,29,31,33,35,37,39,41,43,45,47,49,51,53,55,57,59,61,63,65,67,69,71,73,75,77,79,81,83,85,87,89,91,93,95,97,99,101,103,105,107,109,111,113,115,117,119,121,123,125,-1,-1,-1,-1,-1,-1,-1,-1,-1,-1,-1,-1,-1,-1,-1,-1,-1,-1,-1,-1,-1,-1,-1,-1,-1,-1,-1,-1,-1,-1,-1,-1,-1,-1,-1,-1,-1,-1,-1,-1,-1,-1,-1,-1,-1,-1,-1,-1,-1,-1,-1,-1,-1,-1,-1,-1,-1,-1,-1,-1,-1,-1,-1,-1],"loss_changes":[4.3293727E9,7.539423E8,6.563354E8,1.0102203E9,4.957005E7,1.3187341E8,1.4944907E8,5.1168256E7,1.992256E8,3.606845E7,4.7033984E7,1.7544256E7,3.157728E7,2.2330002E7,4.354376E7,3.717229E7,5.0616064E7,1.3364403E8,4.495091E7,2.6199392E7,5.87872E6,1.0594688E7,2.779968E7,1.386784E7,4.1705035E6,3.141456E7,1.079049E7,1.2129704E7,8.2470585E6,8.316632E6,1.0437888E7,3.029008E7,7.51256E6,8.779712E6,2.846592E7,1.4199232E8,5.715163E7,3.5957056E7,2.2071648E7,1.2647264E7,5.54016E6,1.638664E6,4.173688E6,6.325792E6,8.014752E6,6.14956E6,3.1343616E7,4.918944E6,4.685632E6,2.438749E6,1.5899584E6,6.463456E6,7.149392E6,4.231627E6,2.570421E6,7.92728E6,5.196247E6,5.397319E6,2.724229E6,1.1549926E7,7.562112E6,3.512752E6,1.36232E6,0E0,0E0,0E0,0E0,0E0,0E0,0E0,0E0,0E0,0E0,0E0,0E0,0E0,0E0,0E0,0E0,0E0,0E0,0E0,0E0,0E0,0E0,0E0,0E0,0E0,0E0,0E0,0E0,0E0,0E0,0E0,0E0,0E0,0E0,0E0,0E0,0E0,0E0,0E0,0E0,0E0,0E0,0E0,0E0,0E0,0E0,0E0,0E0,0E0,0E0,0E0,0E0,0E0,0E0,0E0,0E0,0E0,0E0,0E0,0E0,0E0,0E0,0E0,0E0],"parents":[2147483647,0,0,1,1,2,2,3,3,4,4,5,5,6,6,7,7,8,8,9,9,10,10,11,11,12,12,13,13,14,14,15,15,16,16,17,17,18,18,19,19,20,20,21,21,22,22,23,23,24,24,25,25,26,26,27,27,28,28,29,29,30,30,31,31,32,32,33,33,34,34,35,35,36,36,37,37,38,38,39,39,40,40,41,41,42,42,43,43,44,44,45,45,46,46,47,47,48,48,49,49,50,50,51,51,52,52,53,53,54,54,55,55,56,56,57,57,58,58,59,59,60,60,61,61,62,62],"right_children":[2,4,6,8,10,12,14,16,18,20,22,24,26,28,30,32,34,36,38,40,42,44,46,48,50,52,54,56,58,60,62,64,66,68,70,72,74,76,78,80,82,84,86,88,90,92,94,96,98,100,102,104,106,108,110,112,114,116,118,120,122,124,126,-1,-1,-1,-1,-1,-1,-1,-1,-1,-1,-1,-1,-1,-1,-1,-1,-1,-1,-1,-1,-1,-1,-1,-1,-1,-1,-1,-1,-1,-1,-1,-1,-1,-1,-1,-1,-1,-1,-1,-1,-1,-1,-1,-1,-1,-1,-1,-1,-1,-1,-1,-1,-1,-1,-1,-1,-1,-1,-1,-1,-1,-1,-1,-1],"split_conditions":[1E0,1.4065117E2,1.25E2,-1.327996E2,8E1,7.5E1,1.75E2,8.114286E1,1.5E2,6.157143E1,7.957143E1,5.5E1,5.5E1,1.5E2,2.25E2,6.1714287E1,7.957143E1,5.042857E1,4.7E1,6.0857143E1,3.3333426E2,9.142857E1,9.771429E1,5E1,8.9E1,1E2,1.5E0,2.7E1,2.7E1,5.542857E1,2.75E2,5.9142857E1,6.957143E1,9.328571E1,-2.7012228E2,5.7142857E1,0E0,5.7142857E1,2E2,4.7E1,1E2,7.2E1,6.671429E1,7.014286E1,1.5699666E2,8.685714E1,1.3758357E2,2.5E1,1.1E1,1E0,7.8E1,1E1,2.9293234E1,8E0,7.8E1,2.817965E1,7.8E1,2.817965E1,7.8E1,1.3758357E2,7.8E1,5.4714287E1,3.25E2,1.0893573E1,1.7871166E1,5.2264256E0,9.730678E0,2.0212421E1,2.5966711E1,1.6472197E1,1.1505402E1,4.826345E0,1.6195997E1,5.197351E-1,3.159148E0,1.056697E1,2.3539833E1,6.200806E0,9.718949E0,1.3697059E1,7.347631E0,1.5364734E1,2.0140858E1,6.979909E0,3.4060764E0,6.3047013E0,1.098378E1,2.208246E1,1.6182247E1,2.6583082E1,2.0126255E0,1.3191899E1,7.373751E0,2.0548437E1,1.4574645E1,-4.0383677E0,-3.1962624E0,-2.724342E0,-1.8068469E0,8.665248E0,3.1325745E1,8.398051E-2,3.0669324E0,-2.0574226E0,-1.1924309E0,-1.0009556E0,-1.6912403E0,1.5449756E1,4.5386654E1,1.5632428E0,4.5209823E0,-4.3964466E-1,-1.237893E0,1.4402697E0,6.5025735E0,4.3807927E-1,-3.4505725E-1,2.4149845E0,6.8605094E0,-2.1927579E-1,3.7868786E0,1.5120839E0,9.1237335E0,1.7152185E0,3.5132415E0,5.90082E0,9.271693E0],"split_indices":[27,42,16,42,37,16,16,37,16,41,41,15,15,16,16,41,41,41,41,37,42,37,37,16,25,16,22,15,15,41,16,37,37,37,42,37,42,37,16,41,16,41,37,41,39,41,39,16,15,6,15,15,42,18,15,42,15,42,15,39,15,41,16,0,0,0,0,0,0,0,0,0,0,0,0,0,0,0,0,0,0,0,0,0,0,0,0,0,0,0,0,0,0,0,0,0,0,0,0,0,0,0,0,0,0,0,0,0,0,0,0,0,0,0,0,0,0,0,0,0,0,0,0,0,0,0,0],"split_type":[0,0,0,0,0,0,0,0,0,0,0,0,0,0,0,0,0,0,0,0,0,0,0,0,0,0,0,0,0,0,0,0,0,0,0,0,0,0,0,0,0,0,0,0,0,0,0,0,0,0,0,0,0,0,0,0,0,0,0,0,0,0,0,0,0,0,0,0,0,0,0,0,0,0,0,0,0,0,0,0,0,0,0,0,0,0,0,0,0,0,0,0,0,0,0,0,0,0,0,0,0,0,0,0,0,0,0,0,0,0,0,0,0,0,0,0,0,0,0,0,0,0,0,0,0,0,0],"sum_hessian":[5.551383E6,7.92723E5,4.75866E6,6.89507E5,1.03216E5,2.991323E6,1.767337E6,1.07309E5,5.82198E5,3.7472E4,6.5744E4,1.133199E6,1.858124E6,1.238773E6,5.28564E5,4.0297E4,6.7012E4,4.64994E5,1.17204E5,2.3708E4,1.3764E4,1.2273E4,5.3471E4,1.125807E6,7.392E3,1.84595E6,1.2174E4,7.43208E5,4.95565E5,4.26259E5,1.02305E5,2.504E4,1.5257E4,1.1662E4,5.535E4,6.4302E4,4.00692E5,1.3735E4,1.03469E5,1.3658E4,1.005E4,5.14E3,8.624E3,7.668E3,4.605E3,7.678E3,4.5793E4,4.34069E5,6.91738E5,2.39E2,7.153E3,9.2256E5,9.2339E5,4.09E2,1.1765E4,7.28119E5,1.5089E4,4.85497E5,1.0068E4,6.3711E4,3.62548E5,8.8707E4,1.3598E4,1.3456E4,1.1584E4,6.34E3,8.917E3,7.537E3,4.125E3,3.8933E4,1.6417E4,5.0245E4,1.4057E4,1.15102E5,2.8559E5,1.1088E4,2.647E3,8.0562E4,2.2907E4,8.766E3,4.892E3,4.187E3,5.863E3,2.523E3,2.617E3,2.855E3,5.769E3,4.661E3,3.007E3,4.468E3,1.37E2,2.96E3,4.718E3,1.1863E4,3.393E4,8.6696E4,3.47373E5,6.30679E5,6.1059E4,1.74E2,6.5E1,3.684E3,3.469E3,8.26081E5,9.6479E4,7.34849E5,1.88541E5,3.55E2,5.4E1,6.054E3,5.711E3,5.6889E5,1.59229E5,1.2676E4,2.413E3,3.70033E5,1.15464E5,8.42E3,1.648E3,5.5442E4,8.269E3,3.61239E5,1.309E3,1.2681E4,7.6026E4,1.2266E4,1.332E3],"tree_param":{"num_deleted":"0","num_feature":"46","num_nodes":"127","size_leaf_vector":"1"}},{"base_weights":[-2.289154E-3,6.137463E1,-1.0232091E1,3.3057854E1,1.6814996E2,-3.1671326E1,-3.6249197E0,-1.1987558E1,4.8900146E1,1.3751582E2,1.8747754E2,-3.1810589E1,-2.2321636E1,-1.4393784E1,1.4289511E1,-2.060337E1,6.5265546E0,6.760123E1,1.3791241E1,1.3414568E2,2.2998871E2,3.2862955E2,1.8437187E2,-3.1277508E1,-3.3809437E1,-3.1354622E1,-1.6628645E1,-2.4478987E1,-8.510512E0,9.887818E0,4.1797005E1,-3.244765E1,-1.6468042E1,3.5838017E0,2.4071095E1,5.5814003E1,1.4462315E2,3.2099423E0,9.091945E1,1.1909179E2,1.4807793E2,2.1379726E2,3.654434E2,3.0691693E2,5.1270215E2,1.6052629E2,1.9725465E2,-3.1241488E1,-4.306528E1,-3.3513607E1,-3.648727E1,-3.1481842E1,-1.0970144E1,-1.7799719E1,-1.0831689E1,-2.4989368E1,2.3621683E1,-9.236804E0,2.6270042E1,2.9983504E0,1.6452103E1,3.702331E1,6.694542E1,-4.282088E0,-2.9701097E0,-1.7508974E0,5.4982114E-1,2.2942387E-1,2.206779E0,2.0160263E0,3.5084927E0,1.4218569E1,3.982245E0,8.074506E0,1.7467594E1,-6.922555E-1,2.12306E0,1.0320056E1,5.153704E0,1.0960064E1,1.3779665E1,1.3799403E1,1.6965193E1,2.6754843E1,2.0277292E1,3.2778835E1,4.43914E1,2.8911606E1,3.821176E1,4.655951E1,6.355791E1,1.5245685E1,2.2919025E1,2.248945E1,1.798163E1,-3.0778728E0,-3.18385E0,-4.37405E0,-4.133992E0,-3.3474298E0,-4.544867E0,-3.6033866E0,-3.940441E0,-3.474955E0,-3.080436E0,-1.4435471E0,-2.3959439E-1,-1.8042065E0,-8.3534825E-1,-1.2004935E0,-3.165631E-1,-2.0006952E0,-2.968678E0,6.8204194E-1,5.79488E0,-1.4169316E0,-4.3077713E-1,1.6751587E0,7.5190454E0,1.3443993E0,4.0592935E-2,1.1533226E0,2.2238412E0,2.662958E0,4.6470838E0,5.109926E0,8.053532E0],"categories":[],"categories_nodes":[],"categories_segments":[],"categories_sizes":[],"default_left":[0,0,0,0,0,0,0,0,0,0,0,0,0,0,0,0,0,0,0,0,0,0,0,0,0,0,0,0,0,0,0,0,0,0,0,0,0,0,0,0,0,0,0,0,0,0,0,0,0,0,0,0,0,0,0,0,0,0,0,0,0,0,0,0,0,0,0,0,0,0,0,0,0,0,0,0,0,0,0,0,0,0,0,0,0,0,0,0,0,0,0,0,0,0,0,0,0,0,0,0,0,0,0,0,0,0,0,0,0,0,0,0,0,0,0,0,0,0,0,0,0,0,0,0,0,0,0],"id":12,"left_children":[1,3,5,7,9,11,13,15,17,19,21,23,25,27,29,31,33,35,37,39,41,43,45,47,49,51,53,55,57,59,61,63,65,67,69,71,73,75,77,79,81,83,85,87,89,91,93,95,97,99,101,103,105,107,109,111,113,115,117,119,121,123,125,-1,-1,-1,-1,-1,-1,-1,-1,-1,-1,-1,-1,-1,-1,-1,-1,-1,-1,-1,-1,-1,-1,-1,-1,-1,-1,-1,-1,-1,-1,-1,-1,-1,-1,-1,-1,-1,-1,-1,-1,-1,-1,-1,-1,-1,-1,-1,-1,-1,-1,-1,-1,-1,-1,-1,-1,-1,-1,-1,-1,-1,-1,-1,-1],"loss_changes":[3.4870766E9,2.3989235E9,6.743187E8,4.4752128E8,9.844275E7,1.459584E6,7.020138E8,2.6027734E7,3.0461286E8,2.002048E7,4.4640256E7,1.17632E6,8.46033E5,1.3484954E8,1.6541818E8,5.453392E6,2.6752895E6,2.748101E8,1.31590344E8,1.3002752E7,4.880704E6,8.611408E6,3.0619392E7,3.69088E5,1.83072E5,1.61555E4,6.837275E4,2.0557024E7,3.6259224E7,5.326256E7,2.2622208E7,8.19686E5,1.887312E6,1.0577315E6,3.198865E5,3.6260544E8,7.711232E7,2.5890004E7,9.402848E6,5.283104E6,6.98976E6,1.143928E6,5.63644E5,2.519952E6,1.035404E6,1.9359552E7,3.11808E7,2.39296E5,1.285E3,9.6768E4,2.9176E4,1.29275E4,1.1836221E3,1.9081E4,1.52520625E4,1.9391168E7,5.0702935E6,3.418393E7,1.3670594E7,1.5560906E7,1.7165344E7,1.5552384E7,6.470304E6,0E0,0E0,0E0,0E0,0E0,0E0,0E0,0E0,0E0,0E0,0E0,0E0,0E0,0E0,0E0,0E0,0E0,0E0,0E0,0E0,0E0,0E0,0E0,0E0,0E0,0E0,0E0,0E0,0E0,0E0,0E0,0E0,0E0,0E0,0E0,0E0,0E0,0E0,0E0,0E0,0E0,0E0,0E0,0E0,0E0,0E0,0E0,0E0,0E0,0E0,0E0,0E0,0E0,0E0,0E0,0E0,0E0,0E0,0E0,0E0,0E0,0E0,0E0,0E0],"parents":[2147483647,0,0,1,1,2,2,3,3,4,4,5,5,6,6,7,7,8,8,9,9,10,10,11,11,12,12,13,13,14,14,15,15,16,16,17,17,18,18,19,19,20,20,21,21,22,22,23,23,24,24,25,25,26,26,27,27,28,28,29,29,30,30,31,31,32,32,33,33,34,34,35,35,36,36,37,37,38,38,39,39,40,40,41,41,42,42,43,43,44,44,45,45,46,46,47,47,48,48,49,49,50,50,51,51,52,52,53,53,54,54,55,55,56,56,57,57,58,58,59,59,60,60,61,61,62,62],"right_children":[2,4,6,8,10,12,14,16,18,20,22,24,26,28,30,32,34,36,38,40,42,44,46,48,50,52,54,56,58,60,62,64,66,68,70,72,74,76,78,80,82,84,86,88,90,92,94,96,98,100,102,104,106,108,110,112,114,116,118,120,122,124,126,-1,-1,-1,-1,-1,-1,-1,-1,-1,-1,-1,-1,-1,-1,-1,-1,-1,-1,-1,-1,-1,-1,-1,-1,-1,-1,-1,-1,-1,-1,-1,-1,-1,-1,-1,-1,-1,-1,-1,-1,-1,-1,-1,-1,-1,-1,-1,-1,-1,-1,-1,-1,-1,-1,-1,-1,-1,-1,-1,-1,-1,-1,-1,-1],"split_conditions":[1E0,2.9411764E0,-9.5084745E-1,0E0,5.5545454E0,-9.726776E-1,1.25E2,1E2,8E-3,2E1,2E0,1.5E2,2.5E1,7.5E1,2E2,5E1,1.5E2,1.3203307E2,2.1E0,4.133333E0,7.8E1,5.5E1,6.3534393E1,7.8E1,2.25E2,1.8E1,6E0,4.2E1,2.7E1,1.5E2,2.5E2,2.5E1,1.6E1,1.3E1,1.75E2,-1.24943886E2,6.1E1,1.5E2,1.75E2,1.054E3,1.118E3,2E0,1.4914285E2,2.3E1,2.0757143E2,1.0457143E2,1.75E2,1E2,2.3072278E2,7.8E1,2.75E2,2E0,3.5E1,5E1,1.3E1,-3.846154E-2,7.8E1,1E2,7.8E1,0E0,8E-3,8E-3,8E-3,-4.282088E0,-2.9701097E0,-1.7508974E0,5.4982114E-1,2.2942387E-1,2.206779E0,2.0160263E0,3.5084927E0,1.4218569E1,3.982245E0,8.074506E0,1.7467594E1,-6.922555E-1,2.12306E0,1.0320056E1,5.153704E0,1.0960064E1,1.3779665E1,1.3799403E1,1.6965193E1,2.6754843E1,2.0277292E1,3.2778835E1,4.43914E1,2.8911606E1,3.821176E1,4.655951E1,6.355791E1,1.5245685E1,2.2919025E1,2.248945E1,1.798163E1,-3.0778728E0,-3.18385E0,-4.37405E0,-4.133992E0,-3.3474298E0,-4.544867E0,-3.6033866E0,-3.940441E0,-3.474955E0,-3.080436E0,-1.4435471E0,-2.3959439E-1,-1.8042065E0,-8.3534825E-1,-1.2004935E0,-3.165631E-1,-2.0006952E0,-2.968678E0,6.8204194E-1,5.79488E0,-1.4169316E0,-4.3077713E-1,1.6751587E0,7.5190454E0,1.3443993E0,4.0592935E-2,1.1533226E0,2.2238412E0,2.662958E0,4.6470838E0,5.109926E0,8.053532E0],"split_indices":[27,45,45,45,45,45,16,16,45,15,29,16,16,16,16,16,16,42,45,45,15,15,39,15,16,15,15,15,15,16,16,16,15,15,16,42,33,16,16,26,26,29,37,18,37,37,34,16,39,15,16,27,15,16,15,45,15,16,15,45,45,45,45,0,0,0,0,0,0,0,0,0,0,0,0,0,0,0,0,0,0,0,0,0,0,0,0,0,0,0,0,0,0,0,0,0,0,0,0,0,0,0,0,0,0,0,0,0,0,0,0,0,0,0,0,0,0,0,0,0,0,0,0,0,0,0,0],"split_type":[0,0,0,0,0,0,0,0,0,0,0,0,0,0,0,0,0,0,0,0,0,0,0,0,0,0,0,0,0,0,0,0,0,0,0,0,0,0,0,0,0,0,0,0,0,0,0,0,0,0,0,0,0,0,0,0,0,0,0,0,0,0,0,0,0,0,0,0,0,0,0,0,0,0,0,0,0,0,0,0,0,0,0,0,0,0,0,0,0,0,0,0,0,0,0,0,0,0,0,0,0,0,0,0,0,0,0,0,0,0,0,0,0,0,0,0,0,0,0,0,0,0,0,0,0,0,0],"sum_hessian":[5.553784E6,7.93418E5,4.760366E6,6.2711E5,1.66308E5,1.121446E6,3.63892E6,1.63167E5,4.63943E5,6.4339E4,1.01969E5,1.104985E6,1.6461E4,2.272723E6,1.366197E6,1.11349E5,5.1818E4,3.02704E5,1.61239E5,6.2079E4,2.26E3,2.193E3,9.9776E4,8.72351E5,2.32634E5,6.362E3,1.0099E4,8.37339E5,1.435384E6,1.177739E6,1.88458E5,2.8814E4,8.2535E4,4.4376E4,7.442E3,2.62529E5,4.0175E4,1.41788E5,1.9451E4,2.9843E4,3.2236E4,2.021E3,2.39E2,1.964E3,2.29E2,3.5002E4,6.4774E4,8.69697E5,2.654E3,2.09503E5,2.3131E4,6.322E3,4E1,8.4E3,1.699E3,8.28548E5,8.791E3,1.406024E6,2.936E4,5.74637E5,6.03102E5,1.58394E5,3.0064E4,6.029E3,2.2785E4,7.8801E4,3.734E3,4.1483E4,2.893E3,5.494E3,1.948E3,4.1012E4,2.21517E5,1.2855E4,2.732E4,9.0758E4,5.103E4,1.4826E4,4.625E3,1.9802E4,1.0041E4,2.1973E4,1.0263E4,3.4E2,1.681E3,1.65E2,7.4E1,1.592E3,3.72E2,1.69E2,6E1,3.1324E4,3.678E3,2.5053E4,3.9721E4,4.89965E5,3.79732E5,1.89E3,7.64E2,2.08819E5,6.84E2,2.0031E4,3.1E3,1.077E3,5.245E3,2.8E1,1.2E1,8.189E3,2.11E2,1.473E3,2.26E2,4.02079E5,4.26469E5,5.903E3,2.888E3,7.02763E5,7.03261E5,2.4579E4,4.781E3,1.14257E5,4.6038E5,3.25987E5,2.77115E5,7.5422E4,8.2972E4,1.3882E4,1.6182E4],"tree_param":{"num_deleted":"0","num_feature":"46","num_nodes":"127","size_leaf_vector":"1"}},{"base_weights":[1.2430047E-2,5.5345375E1,-9.20043E0,1.8314313E2,-6.755225E0,-3.1174202E1,-4.8203218E-1,1.5803387E2,2.0137842E2,-9.691106E0,1.8331937E2,1.5585284E2,-3.121444E1,2.0263245E0,-3.1585632E1,1.4663623E2,1.9524043E2,2.284103E2,1.7863158E2,-1.0151582E1,6.0468716E1,1.6316675E2,2.3296802E2,4.7804142E1,5.4612744E2,-1.2096684E1,-3.1322218E1,1.0643624E0,3.0988997E1,-3.2671085E1,-2.9506786E1,1.592721E2,1.11546005E2,2.4118736E2,1.6581102E2,2.0880429E2,2.9767572E2,1.5377419E2,2.3309503E2,-1.17255335E1,1.2794414E-1,3.6997826E1,8.4069176E1,1.7449893E2,1.1183749E2,-2.6108835E2,2.3626778E2,1.3855356E1,5.6817084E2,3.6592923E2,8.436057E2,-2.9836714E1,1.6203098E2,-2.8313967E1,-3.1765648E1,-4.0797007E-1,6.421722E0,2.5194984E1,8.514626E1,-3.268106E1,6.8418627E0,-2.9677471E1,6.4765045E1,1.44924E1,2.3760048E1,4.1953855E0,1.396126E1,3.0507578E1,2.2623367E1,1.23945055E1,2.0922577E1,2.5072474E1,1.9643782E1,2.8100256E1,4.1371292E1,1.3969419E1,1.9352911E1,2.1612814E1,2.8080515E1,-2.7858667E0,-1.0829686E0,-2.514492E-1,1.0248617E0,3.7884884E0,1.9280894E0,7.6933603E0,1.0527904E1,1.5053439E1,2.1196426E1,5.8321834E0,1.2768065E1,-6.8119583E0,-2.6941162E1,2.7377756E1,2.0679132E1,-1.3263214E0,3.5366642E1,6.2658966E1,-9.5637E0,5.3385498E1,9.745436E0,3.463339E1,9.62496E1,-3.726179E0,-5.8022386E-1,1.3992493E1,4.2430298E1,-2.8517802E0,5.391096E-1,-3.2707329E0,-3.0514421E0,-1.03004985E-1,6.043012E-1,5.309198E-1,1.2286597E0,2.1494145E0,3.72671E0,7.935449E0,1.1033462E1,-2.368392E0,-3.2725143E0,8.435014E0,-1.9201558E0,-3.6043205E0,-2.9650266E0,2.901171E0,1.7690685E1],"categories":[],"categories_nodes":[],"categories_segments":[],"categories_sizes":[],"default_left":[0,0,0,0,0,0,0,0,0,0,0,0,0,0,0,0,0,0,0,0,0,0,0,0,0,0,0,0,0,0,0,0,0,0,0,0,0,0,0,0,0,0,0,0,0,0,0,0,0,0,0,0,0,0,0,0,0,0,0,0,0,0,0,0,0,0,0,0,0,0,0,0,0,0,0,0,0,0,0,0,0,0,0,0,0,0,0,0,0,0,0,0,0,0,0,0,0,0,0,0,0,0,0,0,0,0,0,0,0,0,0,0,0,0,0,0,0,0,0,0,0,0,0,0,0,0,0],"id":13,"left_children":[1,3,5,7,9,11,13,15,17,19,21,23,25,27,29,31,33,35,37,39,41,43,45,47,49,51,53,55,57,59,61,63,65,67,69,71,73,75,77,79,81,83,85,87,89,91,93,95,97,99,101,103,105,107,109,111,113,115,117,119,121,123,125,-1,-1,-1,-1,-1,-1,-1,-1,-1,-1,-1,-1,-1,-1,-1,-1,-1,-1,-1,-1,-1,-1,-1,-1,-1,-1,-1,-1,-1,-1,-1,-1,-1,-1,-1,-1,-1,-1,-1,-1,-1,-1,-1,-1,-1,-1,-1,-1,-1,-1,-1,-1,-1,-1,-1,-1,-1,-1,-1,-1,-1,-1,-1,-1],"loss_changes":[2.8305464E9,6.2898104E9,9.119039E8,1.1863757E8,2.9763658E8,1.0180096E7,2.6587957E8,4.6212096E7,9.227622E7,1.6969776E7,8.079456E6,1.2244976E7,2.785024E6,8.786144E7,5.72912E5,3.699469E7,3.453152E7,9.310029E7,1.103465E8,8.44286E6,1.894079E6,3.339056E6,3.876504E6,4.0376E6,3.068418E6,2.3419678E7,1.792256E6,2.4075126E7,3.1808096E7,6.608E4,1.405848E6,6.893926E7,4.3168E7,9.465536E6,2.8306848E7,2.7670784E7,2.915968E7,3.1311232E7,2.0621056E7,6.540116E6,1.8530908E6,2.6285E4,2.50246E5,4.213072E6,8.8026E5,7.345875E3,2.51404E6,1.9951718E6,6.028295E5,1.7964115E6,1.026434E6,1.227573E6,4.004886E6,1.186672E6,1.379328E6,9.60802E6,4.293172E6,4.090668E6,1.420488E6,6.5472E4,8.8418625E4,1.4008E4,6.2835956E5,0E0,0E0,0E0,0E0,0E0,0E0,0E0,0E0,0E0,0E0,0E0,0E0,0E0,0E0,0E0,0E0,0E0,0E0,0E0,0E0,0E0,0E0,0E0,0E0,0E0,0E0,0E0,0E0,0E0,0E0,0E0,0E0,0E0,0E0,0E0,0E0,0E0,0E0,0E0,0E0,0E0,0E0,0E0,0E0,0E0,0E0,0E0,0E0,0E0,0E0,0E0,0E0,0E0,0E0,0E0,0E0,0E0,0E0,0E0,0E0,0E0,0E0,0E0,0E0],"parents":[2147483647,0,0,1,1,2,2,3,3,4,4,5,5,6,6,7,7,8,8,9,9,10,10,11,11,12,12,13,13,14,14,15,15,16,16,17,17,18,18,19,19,20,20,21,21,22,22,23,23,24,24,25,25,26,26,27,27,28,28,29,29,30,30,31,31,32,32,33,33,34,34,35,35,36,36,37,37,38,38,39,39,40,40,41,41,42,42,43,43,44,44,45,45,46,46,47,47,48,48,49,49,50,50,51,51,52,52,53,53,54,54,55,55,56,56,57,57,58,58,59,59,60,60,61,61,62,62],"right_children":[2,4,6,8,10,12,14,16,18,20,22,24,26,28,30,32,34,36,38,40,42,44,46,48,50,52,54,56,58,60,62,64,66,68,70,72,74,76,78,80,82,84,86,88,90,92,94,96,98,100,102,104,106,108,110,112,114,116,118,120,122,124,126,-1,-1,-1,-1,-1,-1,-1,-1,-1,-1,-1,-1,-1,-1,-1,-1,-1,-1,-1,-1,-1,-1,-1,-1,-1,-1,-1,-1,-1,-1,-1,-1,-1,-1,-1,-1,-1,-1,-1,-1,-1,-1,-1,-1,-1,-1,-1,-1,-1,-1,-1,-1,-1,-1,-1,-1,-1,-1,-1,-1,-1,-1,-1,-1],"split_conditions":[1E0,2E0,2E0,8.042857E1,4.26E2,1E0,4.26E2,1.19E3,2.7E2,5.5E1,2.0757143E2,4E0,8.9E1,2E1,4.25E2,8E0,1.1E1,1.0828571E2,1.7485715E2,9E0,7.8E1,7.81E2,2E0,2.5672E2,1.4057143E2,7.8E1,2E0,6E0,7.8E1,4.24E2,2E0,7.66E2,9.52E2,9E0,1.504E3,2E0,1.3442857E2,1.166E3,2.03E2,-1.5134897E2,2E1,1.502E2,3.17E2,1.8285715E2,1.8671428E2,-6.602607E1,8.31E2,1.25E0,4.3E-1,1.84903E5,9E1,4.4E2,4.6516E2,4.25E2,5E0,1.535E3,1.476E3,4.2E1,3.41E2,8.9E1,6.79E2,2.8507154E1,7.8E1,1.44924E1,2.3760048E1,4.1953855E0,1.396126E1,3.0507578E1,2.2623367E1,1.23945055E1,2.0922577E1,2.5072474E1,1.9643782E1,2.8100256E1,4.1371292E1,1.3969419E1,1.9352911E1,2.1612814E1,2.8080515E1,-2.7858667E0,-1.0829686E0,-2.514492E-1,1.0248617E0,3.7884884E0,1.9280894E0,7.6933603E0,1.0527904E1,1.5053439E1,2.1196426E1,5.8321834E0,1.2768065E1,-6.8119583E0,-2.6941162E1,2.7377756E1,2.0679132E1,-1.3263214E0,3.5366642E1,6.2658966E1,-9.5637E0,5.3385498E1,9.745436E0,3.463339E1,9.62496E1,-3.726179E0,-5.8022386E-1,1.3992493E1,4.2430298E1,-2.8517802E0,5.391096E-1,-3.2707329E0,-3.0514421E0,-1.03004985E-1,6.043012E-1,5.309198E-1,1.2286597E0,2.1494145E0,3.72671E0,7.935449E0,1.1033462E1,-2.368392E0,-3.2725143E0,8.435014E0,-1.9201558E0,-3.6043205E0,-2.9650266E0,2.901171E0,1.7690685E1],"split_indices":[27,40,40,37,40,20,40,26,34,15,37,18,25,15,33,5,5,37,37,15,15,34,34,1,41,15,27,15,15,34,27,26,26,5,26,33,37,26,37,42,15,42,25,37,37,42,34,8,21,7,3,26,11,33,27,26,26,15,25,25,40,0,15,0,0,0,0,0,0,0,0,0,0,0,0,0,0,0,0,0,0,0,0,0,0,0,0,0,0,0,0,0,0,0,0,0,0,0,0,0,0,0,0,0,0,0,0,0,0,0,0,0,0,0,0,0,0,0,0,0,0,0,0,0,0,0,0],"split_type":[0,0,0,0,0,0,0,0,0,0,0,0,0,0,0,0,0,0,0,0,0,0,0,0,0,0,0,0,0,0,0,0,0,0,0,0,0,0,0,0,0,0,0,0,0,0,0,0,0,0,0,0,0,0,0,0,0,0,0,0,0,0,0,0,0,0,0,0,0,0,0,0,0,0,0,0,0,0,0,0,0,0,0,0,0,0,0,0,0,0,0,0,0,0,0,0,0,0,0,0,0,0,0,0,0,0,0,0,0,0,0,0,0,0,0,0,0,0,0,0,0,0,0,0,0,0,0],"sum_hessian":[5.552542E6,7.92534E5,4.760008E6,2.59174E5,5.3336E5,1.352124E6,3.407884E6,1.0904E5,1.50134E5,